digraph Tree {
node [shape=box] ;
0 [label="X[2] <= -0.196\ngini = 0.487\nsamples = 7500\nvalue = [3150, 4350]"] ;
1 [label="X[2] <= -0.986\ngini = 0.202\nsamples = 3248\nvalue = [370, 2878]"] ;
0 -> 1 [labeldistance=2.5, labelangle=45, headlabel="True"] ;
2 [label="gini = 0.0\nsamples = 1441\nvalue = [0, 1441]"] ;
1 -> 2 ;
3 [label="X[2] <= -0.96\ngini = 0.326\nsamples = 1807\nvalue = [370, 1437]"] ;
1 -> 3 ;
4 [label="X[2] <= -0.963\ngini = 0.441\nsamples = 61\nvalue = [20, 41]"] ;
3 -> 4 ;
5 [label="X[1] <= 0.989\ngini = 0.397\nsamples = 55\nvalue = [15, 40]"] ;
4 -> 5 ;
6 [label="X[2] <= -0.985\ngini = 0.346\nsamples = 45\nvalue = [10, 35]"] ;
5 -> 6 ;
7 [label="gini = 0.0\nsamples = 1\nvalue = [1, 0]"] ;
6 -> 7 ;
8 [label="X[2] <= -0.982\ngini = 0.325\nsamples = 44\nvalue = [9, 35]"] ;
6 -> 8 ;
9 [label="gini = 0.0\nsamples = 8\nvalue = [0, 8]"] ;
8 -> 9 ;
10 [label="X[2] <= -0.981\ngini = 0.375\nsamples = 36\nvalue = [9, 27]"] ;
8 -> 10 ;
11 [label="gini = 0.0\nsamples = 2\nvalue = [2, 0]"] ;
10 -> 11 ;
12 [label="X[0] <= 0.406\ngini = 0.327\nsamples = 34\nvalue = [7, 27]"] ;
10 -> 12 ;
13 [label="X[1] <= -0.504\ngini = 0.236\nsamples = 22\nvalue = [3, 19]"] ;
12 -> 13 ;
14 [label="X[1] <= -0.718\ngini = 0.444\nsamples = 6\nvalue = [2, 4]"] ;
13 -> 14 ;
15 [label="X[2] <= -0.966\ngini = 0.32\nsamples = 5\nvalue = [1, 4]"] ;
14 -> 15 ;
16 [label="gini = 0.0\nsamples = 4\nvalue = [0, 4]"] ;
15 -> 16 ;
17 [label="gini = 0.0\nsamples = 1\nvalue = [1, 0]"] ;
15 -> 17 ;
18 [label="gini = 0.0\nsamples = 1\nvalue = [1, 0]"] ;
14 -> 18 ;
19 [label="X[0] <= -1.074\ngini = 0.117\nsamples = 16\nvalue = [1, 15]"] ;
13 -> 19 ;
20 [label="X[2] <= -0.968\ngini = 0.5\nsamples = 2\nvalue = [1, 1]"] ;
19 -> 20 ;
21 [label="gini = 0.0\nsamples = 1\nvalue = [1, 0]"] ;
20 -> 21 ;
22 [label="gini = 0.0\nsamples = 1\nvalue = [0, 1]"] ;
20 -> 22 ;
23 [label="gini = 0.0\nsamples = 14\nvalue = [0, 14]"] ;
19 -> 23 ;
24 [label="X[0] <= 0.553\ngini = 0.444\nsamples = 12\nvalue = [4, 8]"] ;
12 -> 24 ;
25 [label="gini = 0.0\nsamples = 2\nvalue = [2, 0]"] ;
24 -> 25 ;
26 [label="X[0] <= 1.012\ngini = 0.32\nsamples = 10\nvalue = [2, 8]"] ;
24 -> 26 ;
27 [label="gini = 0.0\nsamples = 5\nvalue = [0, 5]"] ;
26 -> 27 ;
28 [label="X[2] <= -0.972\ngini = 0.48\nsamples = 5\nvalue = [2, 3]"] ;
26 -> 28 ;
29 [label="X[0] <= 1.994\ngini = 0.444\nsamples = 3\nvalue = [2, 1]"] ;
28 -> 29 ;
30 [label="gini = 0.0\nsamples = 2\nvalue = [2, 0]"] ;
29 -> 30 ;
31 [label="gini = 0.0\nsamples = 1\nvalue = [0, 1]"] ;
29 -> 31 ;
32 [label="gini = 0.0\nsamples = 2\nvalue = [0, 2]"] ;
28 -> 32 ;
33 [label="X[0] <= -0.825\ngini = 0.5\nsamples = 10\nvalue = [5, 5]"] ;
5 -> 33 ;
34 [label="gini = 0.0\nsamples = 2\nvalue = [0, 2]"] ;
33 -> 34 ;
35 [label="X[2] <= -0.972\ngini = 0.469\nsamples = 8\nvalue = [5, 3]"] ;
33 -> 35 ;
36 [label="X[2] <= -0.981\ngini = 0.48\nsamples = 5\nvalue = [2, 3]"] ;
35 -> 36 ;
37 [label="gini = 0.0\nsamples = 2\nvalue = [2, 0]"] ;
36 -> 37 ;
38 [label="gini = 0.0\nsamples = 3\nvalue = [0, 3]"] ;
36 -> 38 ;
39 [label="gini = 0.0\nsamples = 3\nvalue = [3, 0]"] ;
35 -> 39 ;
40 [label="X[2] <= -0.961\ngini = 0.278\nsamples = 6\nvalue = [5, 1]"] ;
4 -> 40 ;
41 [label="gini = 0.0\nsamples = 4\nvalue = [4, 0]"] ;
40 -> 41 ;
42 [label="X[2] <= -0.96\ngini = 0.5\nsamples = 2\nvalue = [1, 1]"] ;
40 -> 42 ;
43 [label="gini = 0.0\nsamples = 1\nvalue = [0, 1]"] ;
42 -> 43 ;
44 [label="gini = 0.0\nsamples = 1\nvalue = [1, 0]"] ;
42 -> 44 ;
45 [label="X[0] <= 1.622\ngini = 0.321\nsamples = 1746\nvalue = [350, 1396]"] ;
3 -> 45 ;
46 [label="X[0] <= -2.057\ngini = 0.313\nsamples = 1611\nvalue = [313, 1298]"] ;
45 -> 46 ;
47 [label="X[0] <= -2.288\ngini = 0.444\nsamples = 3\nvalue = [2, 1]"] ;
46 -> 47 ;
48 [label="gini = 0.0\nsamples = 1\nvalue = [0, 1]"] ;
47 -> 48 ;
49 [label="gini = 0.0\nsamples = 2\nvalue = [2, 0]"] ;
47 -> 49 ;
50 [label="X[1] <= 0.562\ngini = 0.312\nsamples = 1608\nvalue = [311, 1297]"] ;
46 -> 50 ;
51 [label="X[1] <= -0.718\ngini = 0.329\nsamples = 1032\nvalue = [214, 818]"] ;
50 -> 51 ;
52 [label="X[1] <= -2.211\ngini = 0.287\nsamples = 380\nvalue = [66, 314]"] ;
51 -> 52 ;
53 [label="X[2] <= -0.266\ngini = 0.43\nsamples = 32\nvalue = [10, 22]"] ;
52 -> 53 ;
54 [label="X[0] <= 0.701\ngini = 0.459\nsamples = 28\nvalue = [10, 18]"] ;
53 -> 54 ;
55 [label="X[0] <= 0.418\ngini = 0.486\nsamples = 24\nvalue = [10, 14]"] ;
54 -> 55 ;
56 [label="X[1] <= -2.425\ngini = 0.463\nsamples = 22\nvalue = [8, 14]"] ;
55 -> 56 ;
57 [label="X[2] <= -0.914\ngini = 0.355\nsamples = 13\nvalue = [3, 10]"] ;
56 -> 57 ;
58 [label="gini = 0.0\nsamples = 1\nvalue = [1, 0]"] ;
57 -> 58 ;
59 [label="X[0] <= -0.011\ngini = 0.278\nsamples = 12\nvalue = [2, 10]"] ;
57 -> 59 ;
60 [label="X[2] <= -0.801\ngini = 0.18\nsamples = 10\nvalue = [1, 9]"] ;
59 -> 60 ;
61 [label="X[2] <= -0.855\ngini = 0.375\nsamples = 4\nvalue = [1, 3]"] ;
60 -> 61 ;
62 [label="gini = 0.0\nsamples = 3\nvalue = [0, 3]"] ;
61 -> 62 ;
63 [label="gini = 0.0\nsamples = 1\nvalue = [1, 0]"] ;
61 -> 63 ;
64 [label="gini = 0.0\nsamples = 6\nvalue = [0, 6]"] ;
60 -> 64 ;
65 [label="X[0] <= 0.163\ngini = 0.5\nsamples = 2\nvalue = [1, 1]"] ;
59 -> 65 ;
66 [label="gini = 0.0\nsamples = 1\nvalue = [1, 0]"] ;
65 -> 66 ;
67 [label="gini = 0.0\nsamples = 1\nvalue = [0, 1]"] ;
65 -> 67 ;
68 [label="X[0] <= -0.511\ngini = 0.494\nsamples = 9\nvalue = [5, 4]"] ;
56 -> 68 ;
69 [label="gini = 0.0\nsamples = 2\nvalue = [2, 0]"] ;
68 -> 69 ;
70 [label="X[2] <= -0.552\ngini = 0.49\nsamples = 7\nvalue = [3, 4]"] ;
68 -> 70 ;
71 [label="gini = 0.0\nsamples = 2\nvalue = [0, 2]"] ;
70 -> 71 ;
72 [label="X[0] <= -0.311\ngini = 0.48\nsamples = 5\nvalue = [3, 2]"] ;
70 -> 72 ;
73 [label="gini = 0.0\nsamples = 1\nvalue = [0, 1]"] ;
72 -> 73 ;
74 [label="X[0] <= 0.243\ngini = 0.375\nsamples = 4\nvalue = [3, 1]"] ;
72 -> 74 ;
75 [label="gini = 0.0\nsamples = 3\nvalue = [3, 0]"] ;
74 -> 75 ;
76 [label="gini = 0.0\nsamples = 1\nvalue = [0, 1]"] ;
74 -> 76 ;
77 [label="gini = 0.0\nsamples = 2\nvalue = [2, 0]"] ;
55 -> 77 ;
78 [label="gini = 0.0\nsamples = 4\nvalue = [0, 4]"] ;
54 -> 78 ;
79 [label="gini = 0.0\nsamples = 4\nvalue = [0, 4]"] ;
53 -> 79 ;
80 [label="X[2] <= -0.868\ngini = 0.27\nsamples = 348\nvalue = [56, 292]"] ;
52 -> 80 ;
81 [label="X[0] <= -0.399\ngini = 0.089\nsamples = 43\nvalue = [2, 41]"] ;
80 -> 81 ;
82 [label="X[0] <= -0.512\ngini = 0.219\nsamples = 16\nvalue = [2, 14]"] ;
81 -> 82 ;
83 [label="gini = 0.0\nsamples = 13\nvalue = [0, 13]"] ;
82 -> 83 ;
84 [label="X[1] <= -1.678\ngini = 0.444\nsamples = 3\nvalue = [2, 1]"] ;
82 -> 84 ;
85 [label="gini = 0.0\nsamples = 1\nvalue = [0, 1]"] ;
84 -> 85 ;
86 [label="gini = 0.0\nsamples = 2\nvalue = [2, 0]"] ;
84 -> 86 ;
87 [label="gini = 0.0\nsamples = 27\nvalue = [0, 27]"] ;
81 -> 87 ;
88 [label="X[2] <= -0.867\ngini = 0.291\nsamples = 305\nvalue = [54, 251]"] ;
80 -> 88 ;
89 [label="gini = 0.0\nsamples = 1\nvalue = [1, 0]"] ;
88 -> 89 ;
90 [label="X[0] <= 0.251\ngini = 0.288\nsamples = 304\nvalue = [53, 251]"] ;
88 -> 90 ;
91 [label="X[0] <= -0.839\ngini = 0.247\nsamples = 201\nvalue = [29, 172]"] ;
90 -> 91 ;
92 [label="X[1] <= -1.998\ngini = 0.346\nsamples = 72\nvalue = [16, 56]"] ;
91 -> 92 ;
93 [label="X[0] <= -1.006\ngini = 0.48\nsamples = 5\nvalue = [3, 2]"] ;
92 -> 93 ;
94 [label="gini = 0.0\nsamples = 1\nvalue = [0, 1]"] ;
93 -> 94 ;
95 [label="X[2] <= -0.525\ngini = 0.375\nsamples = 4\nvalue = [3, 1]"] ;
93 -> 95 ;
96 [label="gini = 0.0\nsamples = 3\nvalue = [3, 0]"] ;
95 -> 96 ;
97 [label="gini = 0.0\nsamples = 1\nvalue = [0, 1]"] ;
95 -> 97 ;
98 [label="X[2] <= -0.235\ngini = 0.313\nsamples = 67\nvalue = [13, 54]"] ;
92 -> 98 ;
99 [label="X[2] <= -0.717\ngini = 0.298\nsamples = 66\nvalue = [12, 54]"] ;
98 -> 99 ;
100 [label="X[2] <= -0.821\ngini = 0.172\nsamples = 21\nvalue = [2, 19]"] ;
99 -> 100 ;
101 [label="X[2] <= -0.83\ngini = 0.444\nsamples = 3\nvalue = [1, 2]"] ;
100 -> 101 ;
102 [label="gini = 0.0\nsamples = 2\nvalue = [0, 2]"] ;
101 -> 102 ;
103 [label="gini = 0.0\nsamples = 1\nvalue = [1, 0]"] ;
101 -> 103 ;
104 [label="X[1] <= -1.358\ngini = 0.105\nsamples = 18\nvalue = [1, 17]"] ;
100 -> 104 ;
105 [label="X[1] <= -1.678\ngini = 0.278\nsamples = 6\nvalue = [1, 5]"] ;
104 -> 105 ;
106 [label="gini = 0.0\nsamples = 3\nvalue = [0, 3]"] ;
105 -> 106 ;
107 [label="X[0] <= -1.072\ngini = 0.444\nsamples = 3\nvalue = [1, 2]"] ;
105 -> 107 ;
108 [label="gini = 0.0\nsamples = 1\nvalue = [1, 0]"] ;
107 -> 108 ;
109 [label="gini = 0.0\nsamples = 2\nvalue = [0, 2]"] ;
107 -> 109 ;
110 [label="gini = 0.0\nsamples = 12\nvalue = [0, 12]"] ;
104 -> 110 ;
111 [label="X[2] <= -0.604\ngini = 0.346\nsamples = 45\nvalue = [10, 35]"] ;
99 -> 111 ;
112 [label="X[2] <= -0.66\ngini = 0.444\nsamples = 6\nvalue = [4, 2]"] ;
111 -> 112 ;
113 [label="X[1] <= -1.145\ngini = 0.444\nsamples = 3\nvalue = [1, 2]"] ;
112 -> 113 ;
114 [label="gini = 0.0\nsamples = 2\nvalue = [0, 2]"] ;
113 -> 114 ;
115 [label="gini = 0.0\nsamples = 1\nvalue = [1, 0]"] ;
113 -> 115 ;
116 [label="gini = 0.0\nsamples = 3\nvalue = [3, 0]"] ;
112 -> 116 ;
117 [label="X[0] <= -0.926\ngini = 0.26\nsamples = 39\nvalue = [6, 33]"] ;
111 -> 117 ;
118 [label="X[0] <= -0.93\ngini = 0.291\nsamples = 34\nvalue = [6, 28]"] ;
117 -> 118 ;
119 [label="X[2] <= -0.591\ngini = 0.257\nsamples = 33\nvalue = [5, 28]"] ;
118 -> 119 ;
120 [label="X[0] <= -1.073\ngini = 0.5\nsamples = 2\nvalue = [1, 1]"] ;
119 -> 120 ;
121 [label="gini = 0.0\nsamples = 1\nvalue = [1, 0]"] ;
120 -> 121 ;
122 [label="gini = 0.0\nsamples = 1\nvalue = [0, 1]"] ;
120 -> 122 ;
123 [label="X[2] <= -0.509\ngini = 0.225\nsamples = 31\nvalue = [4, 27]"] ;
119 -> 123 ;
124 [label="gini = 0.0\nsamples = 8\nvalue = [0, 8]"] ;
123 -> 124 ;
125 [label="X[2] <= -0.492\ngini = 0.287\nsamples = 23\nvalue = [4, 19]"] ;
123 -> 125 ;
126 [label="gini = 0.0\nsamples = 1\nvalue = [1, 0]"] ;
125 -> 126 ;
127 [label="X[1] <= -1.785\ngini = 0.236\nsamples = 22\nvalue = [3, 19]"] ;
125 -> 127 ;
128 [label="X[0] <= -1.248\ngini = 0.5\nsamples = 2\nvalue = [1, 1]"] ;
127 -> 128 ;
129 [label="gini = 0.0\nsamples = 1\nvalue = [0, 1]"] ;
128 -> 129 ;
130 [label="gini = 0.0\nsamples = 1\nvalue = [1, 0]"] ;
128 -> 130 ;
131 [label="X[2] <= -0.308\ngini = 0.18\nsamples = 20\nvalue = [2, 18]"] ;
127 -> 131 ;
132 [label="X[2] <= -0.313\ngini = 0.245\nsamples = 14\nvalue = [2, 12]"] ;
131 -> 132 ;
133 [label="X[0] <= -1.019\ngini = 0.142\nsamples = 13\nvalue = [1, 12]"] ;
132 -> 133 ;
134 [label="gini = 0.0\nsamples = 10\nvalue = [0, 10]"] ;
133 -> 134 ;
135 [label="X[0] <= -0.983\ngini = 0.444\nsamples = 3\nvalue = [1, 2]"] ;
133 -> 135 ;
136 [label="gini = 0.0\nsamples = 1\nvalue = [1, 0]"] ;
135 -> 136 ;
137 [label="gini = 0.0\nsamples = 2\nvalue = [0, 2]"] ;
135 -> 137 ;
138 [label="gini = 0.0\nsamples = 1\nvalue = [1, 0]"] ;
132 -> 138 ;
139 [label="gini = 0.0\nsamples = 6\nvalue = [0, 6]"] ;
131 -> 139 ;
140 [label="gini = 0.0\nsamples = 1\nvalue = [1, 0]"] ;
118 -> 140 ;
141 [label="gini = 0.0\nsamples = 5\nvalue = [0, 5]"] ;
117 -> 141 ;
142 [label="gini = 0.0\nsamples = 1\nvalue = [1, 0]"] ;
98 -> 142 ;
143 [label="X[2] <= -0.444\ngini = 0.181\nsamples = 129\nvalue = [13, 116]"] ;
91 -> 143 ;
144 [label="X[2] <= -0.823\ngini = 0.074\nsamples = 78\nvalue = [3, 75]"] ;
143 -> 144 ;
145 [label="X[2] <= -0.829\ngini = 0.346\nsamples = 9\nvalue = [2, 7]"] ;
144 -> 145 ;
146 [label="X[2] <= -0.85\ngini = 0.219\nsamples = 8\nvalue = [1, 7]"] ;
145 -> 146 ;
147 [label="gini = 0.0\nsamples = 5\nvalue = [0, 5]"] ;
146 -> 147 ;
148 [label="X[2] <= -0.841\ngini = 0.444\nsamples = 3\nvalue = [1, 2]"] ;
146 -> 148 ;
149 [label="gini = 0.0\nsamples = 1\nvalue = [1, 0]"] ;
148 -> 149 ;
150 [label="gini = 0.0\nsamples = 2\nvalue = [0, 2]"] ;
148 -> 150 ;
151 [label="gini = 0.0\nsamples = 1\nvalue = [1, 0]"] ;
145 -> 151 ;
152 [label="X[2] <= -0.777\ngini = 0.029\nsamples = 69\nvalue = [1, 68]"] ;
144 -> 152 ;
153 [label="X[2] <= -0.781\ngini = 0.165\nsamples = 11\nvalue = [1, 10]"] ;
152 -> 153 ;
154 [label="gini = 0.0\nsamples = 10\nvalue = [0, 10]"] ;
153 -> 154 ;
155 [label="gini = 0.0\nsamples = 1\nvalue = [1, 0]"] ;
153 -> 155 ;
156 [label="gini = 0.0\nsamples = 58\nvalue = [0, 58]"] ;
152 -> 156 ;
157 [label="X[2] <= -0.437\ngini = 0.315\nsamples = 51\nvalue = [10, 41]"] ;
143 -> 157 ;
158 [label="gini = 0.0\nsamples = 2\nvalue = [2, 0]"] ;
157 -> 158 ;
159 [label="X[0] <= -0.183\ngini = 0.273\nsamples = 49\nvalue = [8, 41]"] ;
157 -> 159 ;
160 [label="X[0] <= -0.497\ngini = 0.165\nsamples = 33\nvalue = [3, 30]"] ;
159 -> 160 ;
161 [label="X[0] <= -0.514\ngini = 0.291\nsamples = 17\nvalue = [3, 14]"] ;
160 -> 161 ;
162 [label="X[0] <= -0.703\ngini = 0.219\nsamples = 16\nvalue = [2, 14]"] ;
161 -> 162 ;
163 [label="gini = 0.0\nsamples = 7\nvalue = [0, 7]"] ;
162 -> 163 ;
164 [label="X[0] <= -0.631\ngini = 0.346\nsamples = 9\nvalue = [2, 7]"] ;
162 -> 164 ;
165 [label="X[1] <= -1.678\ngini = 0.444\nsamples = 3\nvalue = [2, 1]"] ;
164 -> 165 ;
166 [label="gini = 0.0\nsamples = 1\nvalue = [0, 1]"] ;
165 -> 166 ;
167 [label="gini = 0.0\nsamples = 2\nvalue = [2, 0]"] ;
165 -> 167 ;
168 [label="gini = 0.0\nsamples = 6\nvalue = [0, 6]"] ;
164 -> 168 ;
169 [label="gini = 0.0\nsamples = 1\nvalue = [1, 0]"] ;
161 -> 169 ;
170 [label="gini = 0.0\nsamples = 16\nvalue = [0, 16]"] ;
160 -> 170 ;
171 [label="X[1] <= -1.251\ngini = 0.43\nsamples = 16\nvalue = [5, 11]"] ;
159 -> 171 ;
172 [label="X[2] <= -0.329\ngini = 0.198\nsamples = 9\nvalue = [1, 8]"] ;
171 -> 172 ;
173 [label="X[0] <= 0.001\ngini = 0.444\nsamples = 3\nvalue = [1, 2]"] ;
172 -> 173 ;
174 [label="gini = 0.0\nsamples = 2\nvalue = [0, 2]"] ;
173 -> 174 ;
175 [label="gini = 0.0\nsamples = 1\nvalue = [1, 0]"] ;
173 -> 175 ;
176 [label="gini = 0.0\nsamples = 6\nvalue = [0, 6]"] ;
172 -> 176 ;
177 [label="X[0] <= -0.013\ngini = 0.49\nsamples = 7\nvalue = [4, 3]"] ;
171 -> 177 ;
178 [label="gini = 0.0\nsamples = 3\nvalue = [3, 0]"] ;
177 -> 178 ;
179 [label="X[2] <= -0.396\ngini = 0.375\nsamples = 4\nvalue = [1, 3]"] ;
177 -> 179 ;
180 [label="gini = 0.0\nsamples = 1\nvalue = [1, 0]"] ;
179 -> 180 ;
181 [label="gini = 0.0\nsamples = 3\nvalue = [0, 3]"] ;
179 -> 181 ;
182 [label="X[0] <= 0.276\ngini = 0.357\nsamples = 103\nvalue = [24, 79]"] ;
90 -> 182 ;
183 [label="gini = 0.0\nsamples = 3\nvalue = [3, 0]"] ;
182 -> 183 ;
184 [label="X[2] <= -0.279\ngini = 0.332\nsamples = 100\nvalue = [21, 79]"] ;
182 -> 184 ;
185 [label="X[2] <= -0.301\ngini = 0.352\nsamples = 92\nvalue = [21, 71]"] ;
184 -> 185 ;
186 [label="X[0] <= 1.231\ngini = 0.333\nsamples = 90\nvalue = [19, 71]"] ;
185 -> 186 ;
187 [label="X[0] <= 0.87\ngini = 0.293\nsamples = 73\nvalue = [13, 60]"] ;
186 -> 187 ;
188 [label="X[0] <= 0.855\ngini = 0.351\nsamples = 44\nvalue = [10, 34]"] ;
187 -> 188 ;
189 [label="X[2] <= -0.438\ngini = 0.331\nsamples = 43\nvalue = [9, 34]"] ;
188 -> 189 ;
190 [label="X[2] <= -0.455\ngini = 0.397\nsamples = 33\nvalue = [9, 24]"] ;
189 -> 190 ;
191 [label="X[0] <= 0.465\ngini = 0.35\nsamples = 31\nvalue = [7, 24]"] ;
190 -> 191 ;
192 [label="gini = 0.0\nsamples = 10\nvalue = [0, 10]"] ;
191 -> 192 ;
193 [label="X[0] <= 0.528\ngini = 0.444\nsamples = 21\nvalue = [7, 14]"] ;
191 -> 193 ;
194 [label="gini = 0.0\nsamples = 2\nvalue = [2, 0]"] ;
193 -> 194 ;
195 [label="X[2] <= -0.698\ngini = 0.388\nsamples = 19\nvalue = [5, 14]"] ;
193 -> 195 ;
196 [label="gini = 0.0\nsamples = 6\nvalue = [0, 6]"] ;
195 -> 196 ;
197 [label="X[1] <= -1.785\ngini = 0.473\nsamples = 13\nvalue = [5, 8]"] ;
195 -> 197 ;
198 [label="gini = 0.0\nsamples = 2\nvalue = [2, 0]"] ;
197 -> 198 ;
199 [label="X[1] <= -0.931\ngini = 0.397\nsamples = 11\nvalue = [3, 8]"] ;
197 -> 199 ;
200 [label="X[0] <= 0.697\ngini = 0.49\nsamples = 7\nvalue = [3, 4]"] ;
199 -> 200 ;
201 [label="gini = 0.0\nsamples = 2\nvalue = [2, 0]"] ;
200 -> 201 ;
202 [label="X[0] <= 0.784\ngini = 0.32\nsamples = 5\nvalue = [1, 4]"] ;
200 -> 202 ;
203 [label="gini = 0.0\nsamples = 3\nvalue = [0, 3]"] ;
202 -> 203 ;
204 [label="X[2] <= -0.509\ngini = 0.5\nsamples = 2\nvalue = [1, 1]"] ;
202 -> 204 ;
205 [label="gini = 0.0\nsamples = 1\nvalue = [1, 0]"] ;
204 -> 205 ;
206 [label="gini = 0.0\nsamples = 1\nvalue = [0, 1]"] ;
204 -> 206 ;
207 [label="gini = 0.0\nsamples = 4\nvalue = [0, 4]"] ;
199 -> 207 ;
208 [label="gini = 0.0\nsamples = 2\nvalue = [2, 0]"] ;
190 -> 208 ;
209 [label="gini = 0.0\nsamples = 10\nvalue = [0, 10]"] ;
189 -> 209 ;
210 [label="gini = 0.0\nsamples = 1\nvalue = [1, 0]"] ;
188 -> 210 ;
211 [label="X[0] <= 0.987\ngini = 0.185\nsamples = 29\nvalue = [3, 26]"] ;
187 -> 211 ;
212 [label="gini = 0.0\nsamples = 14\nvalue = [0, 14]"] ;
211 -> 212 ;
213 [label="X[0] <= 1.01\ngini = 0.32\nsamples = 15\nvalue = [3, 12]"] ;
211 -> 213 ;
214 [label="gini = 0.0\nsamples = 2\nvalue = [2, 0]"] ;
213 -> 214 ;
215 [label="X[0] <= 1.171\ngini = 0.142\nsamples = 13\nvalue = [1, 12]"] ;
213 -> 215 ;
216 [label="gini = 0.0\nsamples = 9\nvalue = [0, 9]"] ;
215 -> 216 ;
217 [label="X[0] <= 1.187\ngini = 0.375\nsamples = 4\nvalue = [1, 3]"] ;
215 -> 217 ;
218 [label="gini = 0.0\nsamples = 1\nvalue = [1, 0]"] ;
217 -> 218 ;
219 [label="gini = 0.0\nsamples = 3\nvalue = [0, 3]"] ;
217 -> 219 ;
220 [label="X[0] <= 1.265\ngini = 0.457\nsamples = 17\nvalue = [6, 11]"] ;
186 -> 220 ;
221 [label="gini = 0.0\nsamples = 2\nvalue = [2, 0]"] ;
220 -> 221 ;
222 [label="X[2] <= -0.705\ngini = 0.391\nsamples = 15\nvalue = [4, 11]"] ;
220 -> 222 ;
223 [label="gini = 0.0\nsamples = 5\nvalue = [0, 5]"] ;
222 -> 223 ;
224 [label="X[2] <= -0.445\ngini = 0.48\nsamples = 10\nvalue = [4, 6]"] ;
222 -> 224 ;
225 [label="X[0] <= 1.283\ngini = 0.444\nsamples = 6\nvalue = [4, 2]"] ;
224 -> 225 ;
226 [label="gini = 0.0\nsamples = 1\nvalue = [0, 1]"] ;
225 -> 226 ;
227 [label="X[0] <= 1.462\ngini = 0.32\nsamples = 5\nvalue = [4, 1]"] ;
225 -> 227 ;
228 [label="gini = 0.0\nsamples = 3\nvalue = [3, 0]"] ;
227 -> 228 ;
229 [label="X[2] <= -0.484\ngini = 0.5\nsamples = 2\nvalue = [1, 1]"] ;
227 -> 229 ;
230 [label="gini = 0.0\nsamples = 1\nvalue = [0, 1]"] ;
229 -> 230 ;
231 [label="gini = 0.0\nsamples = 1\nvalue = [1, 0]"] ;
229 -> 231 ;
232 [label="gini = 0.0\nsamples = 4\nvalue = [0, 4]"] ;
224 -> 232 ;
233 [label="gini = 0.0\nsamples = 2\nvalue = [2, 0]"] ;
185 -> 233 ;
234 [label="gini = 0.0\nsamples = 8\nvalue = [0, 8]"] ;
184 -> 234 ;
235 [label="X[0] <= 1.352\ngini = 0.351\nsamples = 652\nvalue = [148, 504]"] ;
51 -> 235 ;
236 [label="X[0] <= 1.339\ngini = 0.357\nsamples = 628\nvalue = [146, 482]"] ;
235 -> 236 ;
237 [label="X[2] <= -0.207\ngini = 0.356\nsamples = 627\nvalue = [145, 482]"] ;
236 -> 237 ;
238 [label="X[2] <= -0.213\ngini = 0.359\nsamples = 619\nvalue = [145, 474]"] ;
237 -> 238 ;
239 [label="X[2] <= -0.383\ngini = 0.356\nsamples = 617\nvalue = [143, 474]"] ;
238 -> 239 ;
240 [label="X[0] <= -1.286\ngini = 0.341\nsamples = 464\nvalue = [101, 363]"] ;
239 -> 240 ;
241 [label="X[0] <= -1.303\ngini = 0.452\nsamples = 29\nvalue = [10, 19]"] ;
240 -> 241 ;
242 [label="X[1] <= 0.349\ngini = 0.417\nsamples = 27\nvalue = [8, 19]"] ;
241 -> 242 ;
243 [label="X[2] <= -0.401\ngini = 0.34\nsamples = 23\nvalue = [5, 18]"] ;
242 -> 243 ;
244 [label="X[2] <= -0.725\ngini = 0.298\nsamples = 22\nvalue = [4, 18]"] ;
243 -> 244 ;
245 [label="X[0] <= -1.438\ngini = 0.48\nsamples = 10\nvalue = [4, 6]"] ;
244 -> 245 ;
246 [label="X[2] <= -0.83\ngini = 0.444\nsamples = 6\nvalue = [4, 2]"] ;
245 -> 246 ;
247 [label="X[0] <= -1.51\ngini = 0.444\nsamples = 3\nvalue = [1, 2]"] ;
246 -> 247 ;
248 [label="gini = 0.0\nsamples = 2\nvalue = [0, 2]"] ;
247 -> 248 ;
249 [label="gini = 0.0\nsamples = 1\nvalue = [1, 0]"] ;
247 -> 249 ;
250 [label="gini = 0.0\nsamples = 3\nvalue = [3, 0]"] ;
246 -> 250 ;
251 [label="gini = 0.0\nsamples = 4\nvalue = [0, 4]"] ;
245 -> 251 ;
252 [label="gini = 0.0\nsamples = 12\nvalue = [0, 12]"] ;
244 -> 252 ;
253 [label="gini = 0.0\nsamples = 1\nvalue = [1, 0]"] ;
243 -> 253 ;
254 [label="X[0] <= -1.531\ngini = 0.375\nsamples = 4\nvalue = [3, 1]"] ;
242 -> 254 ;
255 [label="gini = 0.0\nsamples = 1\nvalue = [0, 1]"] ;
254 -> 255 ;
256 [label="gini = 0.0\nsamples = 3\nvalue = [3, 0]"] ;
254 -> 256 ;
257 [label="gini = 0.0\nsamples = 2\nvalue = [2, 0]"] ;
241 -> 257 ;
258 [label="X[0] <= -1.063\ngini = 0.331\nsamples = 435\nvalue = [91, 344]"] ;
240 -> 258 ;
259 [label="X[1] <= -0.078\ngini = 0.165\nsamples = 33\nvalue = [3, 30]"] ;
258 -> 259 ;
260 [label="X[2] <= -0.596\ngini = 0.32\nsamples = 10\nvalue = [2, 8]"] ;
259 -> 260 ;
261 [label="X[0] <= -1.148\ngini = 0.444\nsamples = 6\nvalue = [2, 4]"] ;
260 -> 261 ;
262 [label="X[2] <= -0.627\ngini = 0.32\nsamples = 5\nvalue = [1, 4]"] ;
261 -> 262 ;
263 [label="gini = 0.0\nsamples = 4\nvalue = [0, 4]"] ;
262 -> 263 ;
264 [label="gini = 0.0\nsamples = 1\nvalue = [1, 0]"] ;
262 -> 264 ;
265 [label="gini = 0.0\nsamples = 1\nvalue = [1, 0]"] ;
261 -> 265 ;
266 [label="gini = 0.0\nsamples = 4\nvalue = [0, 4]"] ;
260 -> 266 ;
267 [label="X[2] <= -0.447\ngini = 0.083\nsamples = 23\nvalue = [1, 22]"] ;
259 -> 267 ;
268 [label="gini = 0.0\nsamples = 19\nvalue = [0, 19]"] ;
267 -> 268 ;
269 [label="X[2] <= -0.427\ngini = 0.375\nsamples = 4\nvalue = [1, 3]"] ;
267 -> 269 ;
270 [label="gini = 0.0\nsamples = 1\nvalue = [1, 0]"] ;
269 -> 270 ;
271 [label="gini = 0.0\nsamples = 3\nvalue = [0, 3]"] ;
269 -> 271 ;
272 [label="X[0] <= -1.014\ngini = 0.342\nsamples = 402\nvalue = [88, 314]"] ;
258 -> 272 ;
273 [label="X[2] <= -0.549\ngini = 0.49\nsamples = 7\nvalue = [4, 3]"] ;
272 -> 273 ;
274 [label="X[0] <= -1.057\ngini = 0.375\nsamples = 4\nvalue = [1, 3]"] ;
273 -> 274 ;
275 [label="gini = 0.0\nsamples = 1\nvalue = [1, 0]"] ;
274 -> 275 ;
276 [label="gini = 0.0\nsamples = 3\nvalue = [0, 3]"] ;
274 -> 276 ;
277 [label="gini = 0.0\nsamples = 3\nvalue = [3, 0]"] ;
273 -> 277 ;
278 [label="X[2] <= -0.466\ngini = 0.335\nsamples = 395\nvalue = [84, 311]"] ;
272 -> 278 ;
279 [label="X[0] <= 1.08\ngini = 0.353\nsamples = 341\nvalue = [78, 263]"] ;
278 -> 279 ;
280 [label="X[0] <= -0.354\ngini = 0.341\nsamples = 321\nvalue = [70, 251]"] ;
279 -> 280 ;
281 [label="X[2] <= -0.811\ngini = 0.4\nsamples = 116\nvalue = [32, 84]"] ;
280 -> 281 ;
282 [label="X[2] <= -0.819\ngini = 0.489\nsamples = 40\nvalue = [17, 23]"] ;
281 -> 282 ;
283 [label="X[1] <= -0.078\ngini = 0.47\nsamples = 37\nvalue = [14, 23]"] ;
282 -> 283 ;
284 [label="X[0] <= -0.981\ngini = 0.36\nsamples = 17\nvalue = [4, 13]"] ;
283 -> 284 ;
285 [label="gini = 0.0\nsamples = 1\nvalue = [1, 0]"] ;
284 -> 285 ;
286 [label="X[0] <= -0.676\ngini = 0.305\nsamples = 16\nvalue = [3, 13]"] ;
284 -> 286 ;
287 [label="X[0] <= -0.719\ngini = 0.42\nsamples = 10\nvalue = [3, 7]"] ;
286 -> 287 ;
288 [label="X[1] <= -0.291\ngini = 0.219\nsamples = 8\nvalue = [1, 7]"] ;
287 -> 288 ;
289 [label="gini = 0.0\nsamples = 6\nvalue = [0, 6]"] ;
288 -> 289 ;
290 [label="X[2] <= -0.859\ngini = 0.5\nsamples = 2\nvalue = [1, 1]"] ;
288 -> 290 ;
291 [label="gini = 0.0\nsamples = 1\nvalue = [0, 1]"] ;
290 -> 291 ;
292 [label="gini = 0.0\nsamples = 1\nvalue = [1, 0]"] ;
290 -> 292 ;
293 [label="gini = 0.0\nsamples = 2\nvalue = [2, 0]"] ;
287 -> 293 ;
294 [label="gini = 0.0\nsamples = 6\nvalue = [0, 6]"] ;
286 -> 294 ;
295 [label="X[0] <= -0.837\ngini = 0.5\nsamples = 20\nvalue = [10, 10]"] ;
283 -> 295 ;
296 [label="gini = 0.0\nsamples = 3\nvalue = [3, 0]"] ;
295 -> 296 ;
297 [label="X[0] <= -0.739\ngini = 0.484\nsamples = 17\nvalue = [7, 10]"] ;
295 -> 297 ;
298 [label="gini = 0.0\nsamples = 3\nvalue = [0, 3]"] ;
297 -> 298 ;
299 [label="X[0] <= -0.394\ngini = 0.5\nsamples = 14\nvalue = [7, 7]"] ;
297 -> 299 ;
300 [label="X[0] <= -0.547\ngini = 0.48\nsamples = 10\nvalue = [6, 4]"] ;
299 -> 300 ;
301 [label="X[2] <= -0.915\ngini = 0.49\nsamples = 7\nvalue = [3, 4]"] ;
300 -> 301 ;
302 [label="gini = 0.0\nsamples = 2\nvalue = [0, 2]"] ;
301 -> 302 ;
303 [label="X[2] <= -0.855\ngini = 0.48\nsamples = 5\nvalue = [3, 2]"] ;
301 -> 303 ;
304 [label="gini = 0.0\nsamples = 2\nvalue = [2, 0]"] ;
303 -> 304 ;
305 [label="X[1] <= 0.136\ngini = 0.444\nsamples = 3\nvalue = [1, 2]"] ;
303 -> 305 ;
306 [label="gini = 0.0\nsamples = 1\nvalue = [1, 0]"] ;
305 -> 306 ;
307 [label="gini = 0.0\nsamples = 2\nvalue = [0, 2]"] ;
305 -> 307 ;
308 [label="gini = 0.0\nsamples = 3\nvalue = [3, 0]"] ;
300 -> 308 ;
309 [label="X[0] <= -0.357\ngini = 0.375\nsamples = 4\nvalue = [1, 3]"] ;
299 -> 309 ;
310 [label="gini = 0.0\nsamples = 3\nvalue = [0, 3]"] ;
309 -> 310 ;
311 [label="gini = 0.0\nsamples = 1\nvalue = [1, 0]"] ;
309 -> 311 ;
312 [label="gini = 0.0\nsamples = 3\nvalue = [3, 0]"] ;
282 -> 312 ;
313 [label="X[0] <= -0.384\ngini = 0.317\nsamples = 76\nvalue = [15, 61]"] ;
281 -> 313 ;
314 [label="X[0] <= -0.851\ngini = 0.262\nsamples = 71\nvalue = [11, 60]"] ;
313 -> 314 ;
315 [label="X[1] <= -0.078\ngini = 0.08\nsamples = 24\nvalue = [1, 23]"] ;
314 -> 315 ;
316 [label="gini = 0.0\nsamples = 13\nvalue = [0, 13]"] ;
315 -> 316 ;
317 [label="X[0] <= -0.912\ngini = 0.165\nsamples = 11\nvalue = [1, 10]"] ;
315 -> 317 ;
318 [label="X[0] <= -0.917\ngini = 0.32\nsamples = 5\nvalue = [1, 4]"] ;
317 -> 318 ;
319 [label="gini = 0.0\nsamples = 4\nvalue = [0, 4]"] ;
318 -> 319 ;
320 [label="gini = 0.0\nsamples = 1\nvalue = [1, 0]"] ;
318 -> 320 ;
321 [label="gini = 0.0\nsamples = 6\nvalue = [0, 6]"] ;
317 -> 321 ;
322 [label="X[0] <= -0.842\ngini = 0.335\nsamples = 47\nvalue = [10, 37]"] ;
314 -> 322 ;
323 [label="gini = 0.0\nsamples = 2\nvalue = [2, 0]"] ;
322 -> 323 ;
324 [label="X[1] <= -0.078\ngini = 0.292\nsamples = 45\nvalue = [8, 37]"] ;
322 -> 324 ;
325 [label="X[2] <= -0.504\ngini = 0.444\nsamples = 18\nvalue = [6, 12]"] ;
324 -> 325 ;
326 [label="X[0] <= -0.458\ngini = 0.497\nsamples = 13\nvalue = [6, 7]"] ;
325 -> 326 ;
327 [label="X[0] <= -0.684\ngini = 0.469\nsamples = 8\nvalue = [5, 3]"] ;
326 -> 327 ;
328 [label="gini = 0.0\nsamples = 2\nvalue = [0, 2]"] ;
327 -> 328 ;
329 [label="X[2] <= -0.624\ngini = 0.278\nsamples = 6\nvalue = [5, 1]"] ;
327 -> 329 ;
330 [label="X[2] <= -0.67\ngini = 0.444\nsamples = 3\nvalue = [2, 1]"] ;
329 -> 330 ;
331 [label="gini = 0.0\nsamples = 2\nvalue = [2, 0]"] ;
330 -> 331 ;
332 [label="gini = 0.0\nsamples = 1\nvalue = [0, 1]"] ;
330 -> 332 ;
333 [label="gini = 0.0\nsamples = 3\nvalue = [3, 0]"] ;
329 -> 333 ;
334 [label="X[0] <= -0.435\ngini = 0.32\nsamples = 5\nvalue = [1, 4]"] ;
326 -> 334 ;
335 [label="gini = 0.0\nsamples = 3\nvalue = [0, 3]"] ;
334 -> 335 ;
336 [label="X[2] <= -0.783\ngini = 0.5\nsamples = 2\nvalue = [1, 1]"] ;
334 -> 336 ;
337 [label="gini = 0.0\nsamples = 1\nvalue = [0, 1]"] ;
336 -> 337 ;
338 [label="gini = 0.0\nsamples = 1\nvalue = [1, 0]"] ;
336 -> 338 ;
339 [label="gini = 0.0\nsamples = 5\nvalue = [0, 5]"] ;
325 -> 339 ;
340 [label="X[2] <= -0.52\ngini = 0.137\nsamples = 27\nvalue = [2, 25]"] ;
324 -> 340 ;
341 [label="X[0] <= -0.717\ngini = 0.08\nsamples = 24\nvalue = [1, 23]"] ;
340 -> 341 ;
342 [label="X[1] <= 0.136\ngini = 0.444\nsamples = 3\nvalue = [1, 2]"] ;
341 -> 342 ;
343 [label="gini = 0.0\nsamples = 2\nvalue = [0, 2]"] ;
342 -> 343 ;
344 [label="gini = 0.0\nsamples = 1\nvalue = [1, 0]"] ;
342 -> 344 ;
345 [label="gini = 0.0\nsamples = 21\nvalue = [0, 21]"] ;
341 -> 345 ;
346 [label="X[1] <= 0.349\ngini = 0.444\nsamples = 3\nvalue = [1, 2]"] ;
340 -> 346 ;
347 [label="gini = 0.0\nsamples = 2\nvalue = [0, 2]"] ;
346 -> 347 ;
348 [label="gini = 0.0\nsamples = 1\nvalue = [1, 0]"] ;
346 -> 348 ;
349 [label="X[1] <= -0.291\ngini = 0.32\nsamples = 5\nvalue = [4, 1]"] ;
313 -> 349 ;
350 [label="gini = 0.0\nsamples = 2\nvalue = [2, 0]"] ;
349 -> 350 ;
351 [label="X[0] <= -0.373\ngini = 0.444\nsamples = 3\nvalue = [2, 1]"] ;
349 -> 351 ;
352 [label="gini = 0.0\nsamples = 2\nvalue = [2, 0]"] ;
351 -> 352 ;
353 [label="gini = 0.0\nsamples = 1\nvalue = [0, 1]"] ;
351 -> 353 ;
354 [label="X[0] <= -0.259\ngini = 0.302\nsamples = 205\nvalue = [38, 167]"] ;
280 -> 354 ;
355 [label="gini = 0.0\nsamples = 18\nvalue = [0, 18]"] ;
354 -> 355 ;
356 [label="X[0] <= -0.151\ngini = 0.324\nsamples = 187\nvalue = [38, 149]"] ;
354 -> 356 ;
357 [label="X[0] <= -0.156\ngini = 0.469\nsamples = 24\nvalue = [9, 15]"] ;
356 -> 357 ;
358 [label="X[2] <= -0.897\ngini = 0.408\nsamples = 21\nvalue = [6, 15]"] ;
357 -> 358 ;
359 [label="gini = 0.0\nsamples = 1\nvalue = [1, 0]"] ;
358 -> 359 ;
360 [label="X[2] <= -0.685\ngini = 0.375\nsamples = 20\nvalue = [5, 15]"] ;
358 -> 360 ;
361 [label="gini = 0.0\nsamples = 8\nvalue = [0, 8]"] ;
360 -> 361 ;
362 [label="X[2] <= -0.647\ngini = 0.486\nsamples = 12\nvalue = [5, 7]"] ;
360 -> 362 ;
363 [label="gini = 0.0\nsamples = 2\nvalue = [2, 0]"] ;
362 -> 363 ;
364 [label="X[2] <= -0.487\ngini = 0.42\nsamples = 10\nvalue = [3, 7]"] ;
362 -> 364 ;
365 [label="X[2] <= -0.635\ngini = 0.245\nsamples = 7\nvalue = [1, 6]"] ;
364 -> 365 ;
366 [label="X[0] <= -0.224\ngini = 0.5\nsamples = 2\nvalue = [1, 1]"] ;
365 -> 366 ;
367 [label="gini = 0.0\nsamples = 1\nvalue = [0, 1]"] ;
366 -> 367 ;
368 [label="gini = 0.0\nsamples = 1\nvalue = [1, 0]"] ;
366 -> 368 ;
369 [label="gini = 0.0\nsamples = 5\nvalue = [0, 5]"] ;
365 -> 369 ;
370 [label="X[0] <= -0.166\ngini = 0.444\nsamples = 3\nvalue = [2, 1]"] ;
364 -> 370 ;
371 [label="gini = 0.0\nsamples = 2\nvalue = [2, 0]"] ;
370 -> 371 ;
372 [label="gini = 0.0\nsamples = 1\nvalue = [0, 1]"] ;
370 -> 372 ;
373 [label="gini = 0.0\nsamples = 3\nvalue = [3, 0]"] ;
357 -> 373 ;
374 [label="X[0] <= 0.171\ngini = 0.293\nsamples = 163\nvalue = [29, 134]"] ;
356 -> 374 ;
375 [label="X[2] <= -0.7\ngini = 0.122\nsamples = 46\nvalue = [3, 43]"] ;
374 -> 375 ;
376 [label="X[2] <= -0.746\ngini = 0.191\nsamples = 28\nvalue = [3, 25]"] ;
375 -> 376 ;
377 [label="X[1] <= -0.291\ngini = 0.077\nsamples = 25\nvalue = [1, 24]"] ;
376 -> 377 ;
378 [label="X[0] <= 0.063\ngini = 0.278\nsamples = 6\nvalue = [1, 5]"] ;
377 -> 378 ;
379 [label="gini = 0.0\nsamples = 5\nvalue = [0, 5]"] ;
378 -> 379 ;
380 [label="gini = 0.0\nsamples = 1\nvalue = [1, 0]"] ;
378 -> 380 ;
381 [label="gini = 0.0\nsamples = 19\nvalue = [0, 19]"] ;
377 -> 381 ;
382 [label="X[1] <= -0.184\ngini = 0.444\nsamples = 3\nvalue = [2, 1]"] ;
376 -> 382 ;
383 [label="gini = 0.0\nsamples = 1\nvalue = [1, 0]"] ;
382 -> 383 ;
384 [label="X[0] <= -0.004\ngini = 0.5\nsamples = 2\nvalue = [1, 1]"] ;
382 -> 384 ;
385 [label="gini = 0.0\nsamples = 1\nvalue = [0, 1]"] ;
384 -> 385 ;
386 [label="gini = 0.0\nsamples = 1\nvalue = [1, 0]"] ;
384 -> 386 ;
387 [label="gini = 0.0\nsamples = 18\nvalue = [0, 18]"] ;
375 -> 387 ;
388 [label="X[0] <= 0.517\ngini = 0.346\nsamples = 117\nvalue = [26, 91]"] ;
374 -> 388 ;
389 [label="X[1] <= 0.136\ngini = 0.449\nsamples = 44\nvalue = [15, 29]"] ;
388 -> 389 ;
390 [label="X[2] <= -0.898\ngini = 0.382\nsamples = 35\nvalue = [9, 26]"] ;
389 -> 390 ;
391 [label="gini = 0.0\nsamples = 2\nvalue = [2, 0]"] ;
390 -> 391 ;
392 [label="X[0] <= 0.366\ngini = 0.334\nsamples = 33\nvalue = [7, 26]"] ;
390 -> 392 ;
393 [label="X[2] <= -0.516\ngini = 0.165\nsamples = 22\nvalue = [2, 20]"] ;
392 -> 393 ;
394 [label="X[1] <= -0.504\ngini = 0.095\nsamples = 20\nvalue = [1, 19]"] ;
393 -> 394 ;
395 [label="X[2] <= -0.695\ngini = 0.32\nsamples = 5\nvalue = [1, 4]"] ;
394 -> 395 ;
396 [label="X[2] <= -0.707\ngini = 0.5\nsamples = 2\nvalue = [1, 1]"] ;
395 -> 396 ;
397 [label="gini = 0.0\nsamples = 1\nvalue = [0, 1]"] ;
396 -> 397 ;
398 [label="gini = 0.0\nsamples = 1\nvalue = [1, 0]"] ;
396 -> 398 ;
399 [label="gini = 0.0\nsamples = 3\nvalue = [0, 3]"] ;
395 -> 399 ;
400 [label="gini = 0.0\nsamples = 15\nvalue = [0, 15]"] ;
394 -> 400 ;
401 [label="X[1] <= -0.078\ngini = 0.5\nsamples = 2\nvalue = [1, 1]"] ;
393 -> 401 ;
402 [label="gini = 0.0\nsamples = 1\nvalue = [0, 1]"] ;
401 -> 402 ;
403 [label="gini = 0.0\nsamples = 1\nvalue = [1, 0]"] ;
401 -> 403 ;
404 [label="X[0] <= 0.393\ngini = 0.496\nsamples = 11\nvalue = [5, 6]"] ;
392 -> 404 ;
405 [label="gini = 0.0\nsamples = 2\nvalue = [2, 0]"] ;
404 -> 405 ;
406 [label="X[2] <= -0.708\ngini = 0.444\nsamples = 9\nvalue = [3, 6]"] ;
404 -> 406 ;
407 [label="gini = 0.0\nsamples = 4\nvalue = [0, 4]"] ;
406 -> 407 ;
408 [label="X[2] <= -0.638\ngini = 0.48\nsamples = 5\nvalue = [3, 2]"] ;
406 -> 408 ;
409 [label="gini = 0.0\nsamples = 2\nvalue = [2, 0]"] ;
408 -> 409 ;
410 [label="X[1] <= -0.398\ngini = 0.444\nsamples = 3\nvalue = [1, 2]"] ;
408 -> 410 ;
411 [label="gini = 0.0\nsamples = 1\nvalue = [1, 0]"] ;
410 -> 411 ;
412 [label="gini = 0.0\nsamples = 2\nvalue = [0, 2]"] ;
410 -> 412 ;
413 [label="X[2] <= -0.86\ngini = 0.444\nsamples = 9\nvalue = [6, 3]"] ;
389 -> 413 ;
414 [label="gini = 0.0\nsamples = 2\nvalue = [0, 2]"] ;
413 -> 414 ;
415 [label="X[1] <= 0.349\ngini = 0.245\nsamples = 7\nvalue = [6, 1]"] ;
413 -> 415 ;
416 [label="X[2] <= -0.714\ngini = 0.444\nsamples = 3\nvalue = [2, 1]"] ;
415 -> 416 ;
417 [label="gini = 0.0\nsamples = 2\nvalue = [2, 0]"] ;
416 -> 417 ;
418 [label="gini = 0.0\nsamples = 1\nvalue = [0, 1]"] ;
416 -> 418 ;
419 [label="gini = 0.0\nsamples = 4\nvalue = [4, 0]"] ;
415 -> 419 ;
420 [label="X[2] <= -0.631\ngini = 0.256\nsamples = 73\nvalue = [11, 62]"] ;
388 -> 420 ;
421 [label="X[0] <= 0.837\ngini = 0.097\nsamples = 39\nvalue = [2, 37]"] ;
420 -> 421 ;
422 [label="X[0] <= 0.83\ngini = 0.172\nsamples = 21\nvalue = [2, 19]"] ;
421 -> 422 ;
423 [label="X[2] <= -0.852\ngini = 0.095\nsamples = 20\nvalue = [1, 19]"] ;
422 -> 423 ;
424 [label="X[2] <= -0.869\ngini = 0.32\nsamples = 5\nvalue = [1, 4]"] ;
423 -> 424 ;
425 [label="gini = 0.0\nsamples = 4\nvalue = [0, 4]"] ;
424 -> 425 ;
426 [label="gini = 0.0\nsamples = 1\nvalue = [1, 0]"] ;
424 -> 426 ;
427 [label="gini = 0.0\nsamples = 15\nvalue = [0, 15]"] ;
423 -> 427 ;
428 [label="gini = 0.0\nsamples = 1\nvalue = [1, 0]"] ;
422 -> 428 ;
429 [label="gini = 0.0\nsamples = 18\nvalue = [0, 18]"] ;
421 -> 429 ;
430 [label="X[2] <= -0.516\ngini = 0.389\nsamples = 34\nvalue = [9, 25]"] ;
420 -> 430 ;
431 [label="X[2] <= -0.529\ngini = 0.463\nsamples = 22\nvalue = [8, 14]"] ;
430 -> 431 ;
432 [label="X[0] <= 0.672\ngini = 0.42\nsamples = 20\nvalue = [6, 14]"] ;
431 -> 432 ;
433 [label="gini = 0.0\nsamples = 5\nvalue = [0, 5]"] ;
432 -> 433 ;
434 [label="X[2] <= -0.623\ngini = 0.48\nsamples = 15\nvalue = [6, 9]"] ;
432 -> 434 ;
435 [label="gini = 0.0\nsamples = 2\nvalue = [2, 0]"] ;
434 -> 435 ;
436 [label="X[2] <= -0.592\ngini = 0.426\nsamples = 13\nvalue = [4, 9]"] ;
434 -> 436 ;
437 [label="gini = 0.0\nsamples = 4\nvalue = [0, 4]"] ;
436 -> 437 ;
438 [label="X[0] <= 1.039\ngini = 0.494\nsamples = 9\nvalue = [4, 5]"] ;
436 -> 438 ;
439 [label="X[1] <= -0.504\ngini = 0.49\nsamples = 7\nvalue = [4, 3]"] ;
438 -> 439 ;
440 [label="gini = 0.0\nsamples = 1\nvalue = [0, 1]"] ;
439 -> 440 ;
441 [label="X[1] <= -0.078\ngini = 0.444\nsamples = 6\nvalue = [4, 2]"] ;
439 -> 441 ;
442 [label="gini = 0.0\nsamples = 2\nvalue = [2, 0]"] ;
441 -> 442 ;
443 [label="X[2] <= -0.584\ngini = 0.5\nsamples = 4\nvalue = [2, 2]"] ;
441 -> 443 ;
444 [label="gini = 0.0\nsamples = 1\nvalue = [1, 0]"] ;
443 -> 444 ;
445 [label="X[2] <= -0.548\ngini = 0.444\nsamples = 3\nvalue = [1, 2]"] ;
443 -> 445 ;
446 [label="gini = 0.0\nsamples = 2\nvalue = [0, 2]"] ;
445 -> 446 ;
447 [label="gini = 0.0\nsamples = 1\nvalue = [1, 0]"] ;
445 -> 447 ;
448 [label="gini = 0.0\nsamples = 2\nvalue = [0, 2]"] ;
438 -> 448 ;
449 [label="gini = 0.0\nsamples = 2\nvalue = [2, 0]"] ;
431 -> 449 ;
450 [label="X[2] <= -0.476\ngini = 0.153\nsamples = 12\nvalue = [1, 11]"] ;
430 -> 450 ;
451 [label="gini = 0.0\nsamples = 10\nvalue = [0, 10]"] ;
450 -> 451 ;
452 [label="X[2] <= -0.472\ngini = 0.5\nsamples = 2\nvalue = [1, 1]"] ;
450 -> 452 ;
453 [label="gini = 0.0\nsamples = 1\nvalue = [1, 0]"] ;
452 -> 453 ;
454 [label="gini = 0.0\nsamples = 1\nvalue = [0, 1]"] ;
452 -> 454 ;
455 [label="X[1] <= 0.136\ngini = 0.48\nsamples = 20\nvalue = [8, 12]"] ;
279 -> 455 ;
456 [label="X[1] <= -0.291\ngini = 0.444\nsamples = 9\nvalue = [6, 3]"] ;
455 -> 456 ;
457 [label="X[2] <= -0.765\ngini = 0.375\nsamples = 4\nvalue = [1, 3]"] ;
456 -> 457 ;
458 [label="gini = 0.0\nsamples = 1\nvalue = [1, 0]"] ;
457 -> 458 ;
459 [label="gini = 0.0\nsamples = 3\nvalue = [0, 3]"] ;
457 -> 459 ;
460 [label="gini = 0.0\nsamples = 5\nvalue = [5, 0]"] ;
456 -> 460 ;
461 [label="X[0] <= 1.1\ngini = 0.298\nsamples = 11\nvalue = [2, 9]"] ;
455 -> 461 ;
462 [label="gini = 0.0\nsamples = 1\nvalue = [1, 0]"] ;
461 -> 462 ;
463 [label="X[0] <= 1.292\ngini = 0.18\nsamples = 10\nvalue = [1, 9]"] ;
461 -> 463 ;
464 [label="gini = 0.0\nsamples = 7\nvalue = [0, 7]"] ;
463 -> 464 ;
465 [label="X[0] <= 1.315\ngini = 0.444\nsamples = 3\nvalue = [1, 2]"] ;
463 -> 465 ;
466 [label="gini = 0.0\nsamples = 1\nvalue = [1, 0]"] ;
465 -> 466 ;
467 [label="gini = 0.0\nsamples = 2\nvalue = [0, 2]"] ;
465 -> 467 ;
468 [label="X[2] <= -0.438\ngini = 0.198\nsamples = 54\nvalue = [6, 48]"] ;
278 -> 468 ;
469 [label="gini = 0.0\nsamples = 14\nvalue = [0, 14]"] ;
468 -> 469 ;
470 [label="X[2] <= -0.437\ngini = 0.255\nsamples = 40\nvalue = [6, 34]"] ;
468 -> 470 ;
471 [label="gini = 0.0\nsamples = 1\nvalue = [1, 0]"] ;
470 -> 471 ;
472 [label="X[0] <= -0.772\ngini = 0.224\nsamples = 39\nvalue = [5, 34]"] ;
470 -> 472 ;
473 [label="X[0] <= -0.881\ngini = 0.408\nsamples = 7\nvalue = [2, 5]"] ;
472 -> 473 ;
474 [label="gini = 0.0\nsamples = 4\nvalue = [0, 4]"] ;
473 -> 474 ;
475 [label="X[2] <= -0.421\ngini = 0.444\nsamples = 3\nvalue = [2, 1]"] ;
473 -> 475 ;
476 [label="gini = 0.0\nsamples = 1\nvalue = [0, 1]"] ;
475 -> 476 ;
477 [label="gini = 0.0\nsamples = 2\nvalue = [2, 0]"] ;
475 -> 477 ;
478 [label="X[2] <= -0.407\ngini = 0.17\nsamples = 32\nvalue = [3, 29]"] ;
472 -> 478 ;
479 [label="X[2] <= -0.408\ngini = 0.278\nsamples = 18\nvalue = [3, 15]"] ;
478 -> 479 ;
480 [label="X[0] <= -0.025\ngini = 0.208\nsamples = 17\nvalue = [2, 15]"] ;
479 -> 480 ;
481 [label="X[0] <= -0.518\ngini = 0.375\nsamples = 8\nvalue = [2, 6]"] ;
480 -> 481 ;
482 [label="gini = 0.0\nsamples = 5\nvalue = [0, 5]"] ;
481 -> 482 ;
483 [label="X[1] <= 0.349\ngini = 0.444\nsamples = 3\nvalue = [2, 1]"] ;
481 -> 483 ;
484 [label="gini = 0.0\nsamples = 2\nvalue = [2, 0]"] ;
483 -> 484 ;
485 [label="gini = 0.0\nsamples = 1\nvalue = [0, 1]"] ;
483 -> 485 ;
486 [label="gini = 0.0\nsamples = 9\nvalue = [0, 9]"] ;
480 -> 486 ;
487 [label="gini = 0.0\nsamples = 1\nvalue = [1, 0]"] ;
479 -> 487 ;
488 [label="gini = 0.0\nsamples = 14\nvalue = [0, 14]"] ;
478 -> 488 ;
489 [label="X[2] <= -0.379\ngini = 0.398\nsamples = 153\nvalue = [42, 111]"] ;
239 -> 489 ;
490 [label="gini = 0.0\nsamples = 2\nvalue = [2, 0]"] ;
489 -> 490 ;
491 [label="X[0] <= -0.283\ngini = 0.389\nsamples = 151\nvalue = [40, 111]"] ;
489 -> 491 ;
492 [label="X[1] <= -0.078\ngini = 0.271\nsamples = 68\nvalue = [11, 57]"] ;
491 -> 492 ;
493 [label="X[2] <= -0.232\ngini = 0.124\nsamples = 30\nvalue = [2, 28]"] ;
492 -> 493 ;
494 [label="X[2] <= -0.367\ngini = 0.071\nsamples = 27\nvalue = [1, 26]"] ;
493 -> 494 ;
495 [label="X[2] <= -0.368\ngini = 0.278\nsamples = 6\nvalue = [1, 5]"] ;
494 -> 495 ;
496 [label="gini = 0.0\nsamples = 5\nvalue = [0, 5]"] ;
495 -> 496 ;
497 [label="gini = 0.0\nsamples = 1\nvalue = [1, 0]"] ;
495 -> 497 ;
498 [label="gini = 0.0\nsamples = 21\nvalue = [0, 21]"] ;
494 -> 498 ;
499 [label="X[2] <= -0.228\ngini = 0.444\nsamples = 3\nvalue = [1, 2]"] ;
493 -> 499 ;
500 [label="gini = 0.0\nsamples = 1\nvalue = [1, 0]"] ;
499 -> 500 ;
501 [label="gini = 0.0\nsamples = 2\nvalue = [0, 2]"] ;
499 -> 501 ;
502 [label="X[0] <= -0.442\ngini = 0.361\nsamples = 38\nvalue = [9, 29]"] ;
492 -> 502 ;
503 [label="X[0] <= -0.457\ngini = 0.412\nsamples = 31\nvalue = [9, 22]"] ;
502 -> 503 ;
504 [label="X[2] <= -0.335\ngini = 0.391\nsamples = 30\nvalue = [8, 22]"] ;
503 -> 504 ;
505 [label="X[2] <= -0.348\ngini = 0.48\nsamples = 10\nvalue = [4, 6]"] ;
504 -> 505 ;
506 [label="X[2] <= -0.366\ngini = 0.375\nsamples = 8\nvalue = [2, 6]"] ;
505 -> 506 ;
507 [label="gini = 0.0\nsamples = 3\nvalue = [0, 3]"] ;
506 -> 507 ;
508 [label="X[0] <= -0.557\ngini = 0.48\nsamples = 5\nvalue = [2, 3]"] ;
506 -> 508 ;
509 [label="X[2] <= -0.358\ngini = 0.444\nsamples = 3\nvalue = [2, 1]"] ;
508 -> 509 ;
510 [label="gini = 0.0\nsamples = 2\nvalue = [2, 0]"] ;
509 -> 510 ;
511 [label="gini = 0.0\nsamples = 1\nvalue = [0, 1]"] ;
509 -> 511 ;
512 [label="gini = 0.0\nsamples = 2\nvalue = [0, 2]"] ;
508 -> 512 ;
513 [label="gini = 0.0\nsamples = 2\nvalue = [2, 0]"] ;
505 -> 513 ;
514 [label="X[0] <= -0.604\ngini = 0.32\nsamples = 20\nvalue = [4, 16]"] ;
504 -> 514 ;
515 [label="X[1] <= 0.136\ngini = 0.266\nsamples = 19\nvalue = [3, 16]"] ;
514 -> 515 ;
516 [label="X[0] <= -1.07\ngini = 0.469\nsamples = 8\nvalue = [3, 5]"] ;
515 -> 516 ;
517 [label="X[0] <= -1.233\ngini = 0.48\nsamples = 5\nvalue = [3, 2]"] ;
516 -> 517 ;
518 [label="gini = 0.0\nsamples = 2\nvalue = [0, 2]"] ;
517 -> 518 ;
519 [label="gini = 0.0\nsamples = 3\nvalue = [3, 0]"] ;
517 -> 519 ;
520 [label="gini = 0.0\nsamples = 3\nvalue = [0, 3]"] ;
516 -> 520 ;
521 [label="gini = 0.0\nsamples = 11\nvalue = [0, 11]"] ;
515 -> 521 ;
522 [label="gini = 0.0\nsamples = 1\nvalue = [1, 0]"] ;
514 -> 522 ;
523 [label="gini = 0.0\nsamples = 1\nvalue = [1, 0]"] ;
503 -> 523 ;
524 [label="gini = 0.0\nsamples = 7\nvalue = [0, 7]"] ;
502 -> 524 ;
525 [label="X[0] <= 1.067\ngini = 0.455\nsamples = 83\nvalue = [29, 54]"] ;
491 -> 525 ;
526 [label="X[0] <= -0.163\ngini = 0.47\nsamples = 77\nvalue = [29, 48]"] ;
525 -> 526 ;
527 [label="X[0] <= -0.222\ngini = 0.444\nsamples = 6\nvalue = [4, 2]"] ;
526 -> 527 ;
528 [label="X[0] <= -0.261\ngini = 0.444\nsamples = 3\nvalue = [1, 2]"] ;
527 -> 528 ;
529 [label="gini = 0.0\nsamples = 1\nvalue = [1, 0]"] ;
528 -> 529 ;
530 [label="gini = 0.0\nsamples = 2\nvalue = [0, 2]"] ;
528 -> 530 ;
531 [label="gini = 0.0\nsamples = 3\nvalue = [3, 0]"] ;
527 -> 531 ;
532 [label="X[2] <= -0.352\ngini = 0.456\nsamples = 71\nvalue = [25, 46]"] ;
526 -> 532 ;
533 [label="X[0] <= 0.649\ngini = 0.497\nsamples = 13\nvalue = [7, 6]"] ;
532 -> 533 ;
534 [label="X[2] <= -0.366\ngini = 0.444\nsamples = 9\nvalue = [3, 6]"] ;
533 -> 534 ;
535 [label="X[2] <= -0.376\ngini = 0.278\nsamples = 6\nvalue = [1, 5]"] ;
534 -> 535 ;
536 [label="X[1] <= -0.504\ngini = 0.5\nsamples = 2\nvalue = [1, 1]"] ;
535 -> 536 ;
537 [label="gini = 0.0\nsamples = 1\nvalue = [0, 1]"] ;
536 -> 537 ;
538 [label="gini = 0.0\nsamples = 1\nvalue = [1, 0]"] ;
536 -> 538 ;
539 [label="gini = 0.0\nsamples = 4\nvalue = [0, 4]"] ;
535 -> 539 ;
540 [label="X[0] <= 0.151\ngini = 0.444\nsamples = 3\nvalue = [2, 1]"] ;
534 -> 540 ;
541 [label="gini = 0.0\nsamples = 2\nvalue = [2, 0]"] ;
540 -> 541 ;
542 [label="gini = 0.0\nsamples = 1\nvalue = [0, 1]"] ;
540 -> 542 ;
543 [label="gini = 0.0\nsamples = 4\nvalue = [4, 0]"] ;
533 -> 543 ;
544 [label="X[2] <= -0.31\ngini = 0.428\nsamples = 58\nvalue = [18, 40]"] ;
532 -> 544 ;
545 [label="X[1] <= -0.291\ngini = 0.227\nsamples = 23\nvalue = [3, 20]"] ;
544 -> 545 ;
546 [label="X[2] <= -0.335\ngini = 0.5\nsamples = 4\nvalue = [2, 2]"] ;
545 -> 546 ;
547 [label="gini = 0.0\nsamples = 1\nvalue = [1, 0]"] ;
546 -> 547 ;
548 [label="X[2] <= -0.329\ngini = 0.444\nsamples = 3\nvalue = [1, 2]"] ;
546 -> 548 ;
549 [label="gini = 0.0\nsamples = 2\nvalue = [0, 2]"] ;
548 -> 549 ;
550 [label="gini = 0.0\nsamples = 1\nvalue = [1, 0]"] ;
548 -> 550 ;
551 [label="X[0] <= 0.73\ngini = 0.1\nsamples = 19\nvalue = [1, 18]"] ;
545 -> 551 ;
552 [label="gini = 0.0\nsamples = 14\nvalue = [0, 14]"] ;
551 -> 552 ;
553 [label="X[0] <= 0.738\ngini = 0.32\nsamples = 5\nvalue = [1, 4]"] ;
551 -> 553 ;
554 [label="gini = 0.0\nsamples = 1\nvalue = [1, 0]"] ;
553 -> 554 ;
555 [label="gini = 0.0\nsamples = 4\nvalue = [0, 4]"] ;
553 -> 555 ;
556 [label="X[2] <= -0.295\ngini = 0.49\nsamples = 35\nvalue = [15, 20]"] ;
544 -> 556 ;
557 [label="X[1] <= -0.291\ngini = 0.278\nsamples = 6\nvalue = [5, 1]"] ;
556 -> 557 ;
558 [label="gini = 0.0\nsamples = 1\nvalue = [0, 1]"] ;
557 -> 558 ;
559 [label="gini = 0.0\nsamples = 5\nvalue = [5, 0]"] ;
557 -> 559 ;
560 [label="X[0] <= 0.426\ngini = 0.452\nsamples = 29\nvalue = [10, 19]"] ;
556 -> 560 ;
561 [label="X[0] <= 0.126\ngini = 0.494\nsamples = 18\nvalue = [8, 10]"] ;
560 -> 561 ;
562 [label="X[0] <= -0.069\ngini = 0.32\nsamples = 10\nvalue = [2, 8]"] ;
561 -> 562 ;
563 [label="X[0] <= -0.127\ngini = 0.444\nsamples = 3\nvalue = [2, 1]"] ;
562 -> 563 ;
564 [label="gini = 0.0\nsamples = 1\nvalue = [0, 1]"] ;
563 -> 564 ;
565 [label="gini = 0.0\nsamples = 2\nvalue = [2, 0]"] ;
563 -> 565 ;
566 [label="gini = 0.0\nsamples = 7\nvalue = [0, 7]"] ;
562 -> 566 ;
567 [label="X[0] <= 0.173\ngini = 0.375\nsamples = 8\nvalue = [6, 2]"] ;
561 -> 567 ;
568 [label="gini = 0.0\nsamples = 2\nvalue = [2, 0]"] ;
567 -> 568 ;
569 [label="X[0] <= 0.201\ngini = 0.444\nsamples = 6\nvalue = [4, 2]"] ;
567 -> 569 ;
570 [label="gini = 0.0\nsamples = 1\nvalue = [0, 1]"] ;
569 -> 570 ;
571 [label="X[1] <= -0.078\ngini = 0.32\nsamples = 5\nvalue = [4, 1]"] ;
569 -> 571 ;
572 [label="X[2] <= -0.254\ngini = 0.5\nsamples = 2\nvalue = [1, 1]"] ;
571 -> 572 ;
573 [label="gini = 0.0\nsamples = 1\nvalue = [0, 1]"] ;
572 -> 573 ;
574 [label="gini = 0.0\nsamples = 1\nvalue = [1, 0]"] ;
572 -> 574 ;
575 [label="gini = 0.0\nsamples = 3\nvalue = [3, 0]"] ;
571 -> 575 ;
576 [label="X[0] <= 0.962\ngini = 0.298\nsamples = 11\nvalue = [2, 9]"] ;
560 -> 576 ;
577 [label="X[2] <= -0.286\ngini = 0.18\nsamples = 10\nvalue = [1, 9]"] ;
576 -> 577 ;
578 [label="gini = 0.0\nsamples = 1\nvalue = [1, 0]"] ;
577 -> 578 ;
579 [label="gini = 0.0\nsamples = 9\nvalue = [0, 9]"] ;
577 -> 579 ;
580 [label="gini = 0.0\nsamples = 1\nvalue = [1, 0]"] ;
576 -> 580 ;
581 [label="gini = 0.0\nsamples = 6\nvalue = [0, 6]"] ;
525 -> 581 ;
582 [label="gini = 0.0\nsamples = 2\nvalue = [2, 0]"] ;
238 -> 582 ;
583 [label="gini = 0.0\nsamples = 8\nvalue = [0, 8]"] ;
237 -> 583 ;
584 [label="gini = 0.0\nsamples = 1\nvalue = [1, 0]"] ;
236 -> 584 ;
585 [label="X[2] <= -0.711\ngini = 0.153\nsamples = 24\nvalue = [2, 22]"] ;
235 -> 585 ;
586 [label="X[2] <= -0.867\ngini = 0.408\nsamples = 7\nvalue = [2, 5]"] ;
585 -> 586 ;
587 [label="gini = 0.0\nsamples = 4\nvalue = [0, 4]"] ;
586 -> 587 ;
588 [label="X[0] <= 1.476\ngini = 0.444\nsamples = 3\nvalue = [2, 1]"] ;
586 -> 588 ;
589 [label="gini = 0.0\nsamples = 1\nvalue = [0, 1]"] ;
588 -> 589 ;
590 [label="gini = 0.0\nsamples = 2\nvalue = [2, 0]"] ;
588 -> 590 ;
591 [label="gini = 0.0\nsamples = 17\nvalue = [0, 17]"] ;
585 -> 591 ;
592 [label="X[0] <= -1.092\ngini = 0.28\nsamples = 576\nvalue = [97, 479]"] ;
50 -> 592 ;
593 [label="X[2] <= -0.913\ngini = 0.361\nsamples = 72\nvalue = [17, 55]"] ;
592 -> 593 ;
594 [label="X[1] <= 1.096\ngini = 0.32\nsamples = 5\nvalue = [4, 1]"] ;
593 -> 594 ;
595 [label="gini = 0.0\nsamples = 3\nvalue = [3, 0]"] ;
594 -> 595 ;
596 [label="X[0] <= -1.314\ngini = 0.5\nsamples = 2\nvalue = [1, 1]"] ;
594 -> 596 ;
597 [label="gini = 0.0\nsamples = 1\nvalue = [1, 0]"] ;
596 -> 597 ;
598 [label="gini = 0.0\nsamples = 1\nvalue = [0, 1]"] ;
596 -> 598 ;
599 [label="X[2] <= -0.301\ngini = 0.313\nsamples = 67\nvalue = [13, 54]"] ;
593 -> 599 ;
600 [label="X[0] <= -1.104\ngini = 0.352\nsamples = 57\nvalue = [13, 44]"] ;
599 -> 600 ;
601 [label="X[2] <= -0.318\ngini = 0.337\nsamples = 56\nvalue = [12, 44]"] ;
600 -> 601 ;
602 [label="X[2] <= -0.818\ngini = 0.32\nsamples = 55\nvalue = [11, 44]"] ;
601 -> 602 ;
603 [label="gini = 0.0\nsamples = 6\nvalue = [0, 6]"] ;
602 -> 603 ;
604 [label="X[2] <= -0.802\ngini = 0.348\nsamples = 49\nvalue = [11, 38]"] ;
602 -> 604 ;
605 [label="gini = 0.0\nsamples = 1\nvalue = [1, 0]"] ;
604 -> 605 ;
606 [label="X[2] <= -0.738\ngini = 0.33\nsamples = 48\nvalue = [10, 38]"] ;
604 -> 606 ;
607 [label="gini = 0.0\nsamples = 6\nvalue = [0, 6]"] ;
606 -> 607 ;
608 [label="X[2] <= -0.725\ngini = 0.363\nsamples = 42\nvalue = [10, 32]"] ;
606 -> 608 ;
609 [label="gini = 0.0\nsamples = 1\nvalue = [1, 0]"] ;
608 -> 609 ;
610 [label="X[0] <= -1.833\ngini = 0.343\nsamples = 41\nvalue = [9, 32]"] ;
608 -> 610 ;
611 [label="gini = 0.0\nsamples = 4\nvalue = [0, 4]"] ;
610 -> 611 ;
612 [label="X[0] <= -1.795\ngini = 0.368\nsamples = 37\nvalue = [9, 28]"] ;
610 -> 612 ;
613 [label="gini = 0.0\nsamples = 1\nvalue = [1, 0]"] ;
612 -> 613 ;
614 [label="X[2] <= -0.358\ngini = 0.346\nsamples = 36\nvalue = [8, 28]"] ;
612 -> 614 ;
615 [label="X[2] <= -0.364\ngini = 0.375\nsamples = 32\nvalue = [8, 24]"] ;
614 -> 615 ;
616 [label="X[1] <= 0.989\ngini = 0.32\nsamples = 30\nvalue = [6, 24]"] ;
615 -> 616 ;
617 [label="X[2] <= -0.418\ngini = 0.426\nsamples = 13\nvalue = [4, 9]"] ;
616 -> 617 ;
618 [label="X[0] <= -1.439\ngini = 0.375\nsamples = 12\nvalue = [3, 9]"] ;
617 -> 618 ;
619 [label="gini = 0.0\nsamples = 5\nvalue = [0, 5]"] ;
618 -> 619 ;
620 [label="X[0] <= -1.258\ngini = 0.49\nsamples = 7\nvalue = [3, 4]"] ;
618 -> 620 ;
621 [label="X[0] <= -1.359\ngini = 0.375\nsamples = 4\nvalue = [3, 1]"] ;
620 -> 621 ;
622 [label="X[2] <= -0.618\ngini = 0.5\nsamples = 2\nvalue = [1, 1]"] ;
621 -> 622 ;
623 [label="gini = 0.0\nsamples = 1\nvalue = [1, 0]"] ;
622 -> 623 ;
624 [label="gini = 0.0\nsamples = 1\nvalue = [0, 1]"] ;
622 -> 624 ;
625 [label="gini = 0.0\nsamples = 2\nvalue = [2, 0]"] ;
621 -> 625 ;
626 [label="gini = 0.0\nsamples = 3\nvalue = [0, 3]"] ;
620 -> 626 ;
627 [label="gini = 0.0\nsamples = 1\nvalue = [1, 0]"] ;
617 -> 627 ;
628 [label="X[2] <= -0.689\ngini = 0.208\nsamples = 17\nvalue = [2, 15]"] ;
616 -> 628 ;
629 [label="X[0] <= -1.513\ngini = 0.5\nsamples = 2\nvalue = [1, 1]"] ;
628 -> 629 ;
630 [label="gini = 0.0\nsamples = 1\nvalue = [1, 0]"] ;
629 -> 630 ;
631 [label="gini = 0.0\nsamples = 1\nvalue = [0, 1]"] ;
629 -> 631 ;
632 [label="X[0] <= -1.231\ngini = 0.124\nsamples = 15\nvalue = [1, 14]"] ;
628 -> 632 ;
633 [label="gini = 0.0\nsamples = 10\nvalue = [0, 10]"] ;
632 -> 633 ;
634 [label="X[0] <= -1.189\ngini = 0.32\nsamples = 5\nvalue = [1, 4]"] ;
632 -> 634 ;
635 [label="gini = 0.0\nsamples = 1\nvalue = [1, 0]"] ;
634 -> 635 ;
636 [label="gini = 0.0\nsamples = 4\nvalue = [0, 4]"] ;
634 -> 636 ;
637 [label="gini = 0.0\nsamples = 2\nvalue = [2, 0]"] ;
615 -> 637 ;
638 [label="gini = 0.0\nsamples = 4\nvalue = [0, 4]"] ;
614 -> 638 ;
639 [label="gini = 0.0\nsamples = 1\nvalue = [1, 0]"] ;
601 -> 639 ;
640 [label="gini = 0.0\nsamples = 1\nvalue = [1, 0]"] ;
600 -> 640 ;
641 [label="gini = 0.0\nsamples = 10\nvalue = [0, 10]"] ;
599 -> 641 ;
642 [label="X[0] <= -0.837\ngini = 0.267\nsamples = 504\nvalue = [80, 424]"] ;
592 -> 642 ;
643 [label="X[0] <= -0.939\ngini = 0.094\nsamples = 61\nvalue = [3, 58]"] ;
642 -> 643 ;
644 [label="X[0] <= -0.946\ngini = 0.165\nsamples = 33\nvalue = [3, 30]"] ;
643 -> 644 ;
645 [label="X[2] <= -0.291\ngini = 0.117\nsamples = 32\nvalue = [2, 30]"] ;
644 -> 645 ;
646 [label="X[0] <= -0.998\ngini = 0.067\nsamples = 29\nvalue = [1, 28]"] ;
645 -> 646 ;
647 [label="gini = 0.0\nsamples = 21\nvalue = [0, 21]"] ;
646 -> 647 ;
648 [label="X[0] <= -0.982\ngini = 0.219\nsamples = 8\nvalue = [1, 7]"] ;
646 -> 648 ;
649 [label="gini = 0.0\nsamples = 1\nvalue = [1, 0]"] ;
648 -> 649 ;
650 [label="gini = 0.0\nsamples = 7\nvalue = [0, 7]"] ;
648 -> 650 ;
651 [label="X[0] <= -1.048\ngini = 0.444\nsamples = 3\nvalue = [1, 2]"] ;
645 -> 651 ;
652 [label="gini = 0.0\nsamples = 2\nvalue = [0, 2]"] ;
651 -> 652 ;
653 [label="gini = 0.0\nsamples = 1\nvalue = [1, 0]"] ;
651 -> 653 ;
654 [label="gini = 0.0\nsamples = 1\nvalue = [1, 0]"] ;
644 -> 654 ;
655 [label="gini = 0.0\nsamples = 28\nvalue = [0, 28]"] ;
643 -> 655 ;
656 [label="X[0] <= -0.794\ngini = 0.287\nsamples = 443\nvalue = [77, 366]"] ;
642 -> 656 ;
657 [label="X[1] <= 0.776\ngini = 0.494\nsamples = 9\nvalue = [5, 4]"] ;
656 -> 657 ;
658 [label="gini = 0.0\nsamples = 2\nvalue = [0, 2]"] ;
657 -> 658 ;
659 [label="X[2] <= -0.362\ngini = 0.408\nsamples = 7\nvalue = [5, 2]"] ;
657 -> 659 ;
660 [label="gini = 0.0\nsamples = 4\nvalue = [4, 0]"] ;
659 -> 660 ;
661 [label="X[2] <= -0.289\ngini = 0.444\nsamples = 3\nvalue = [1, 2]"] ;
659 -> 661 ;
662 [label="gini = 0.0\nsamples = 2\nvalue = [0, 2]"] ;
661 -> 662 ;
663 [label="gini = 0.0\nsamples = 1\nvalue = [1, 0]"] ;
661 -> 663 ;
664 [label="X[2] <= -0.742\ngini = 0.277\nsamples = 434\nvalue = [72, 362]"] ;
656 -> 664 ;
665 [label="X[0] <= -0.309\ngini = 0.213\nsamples = 132\nvalue = [16, 116]"] ;
664 -> 665 ;
666 [label="gini = 0.0\nsamples = 37\nvalue = [0, 37]"] ;
665 -> 666 ;
667 [label="X[0] <= -0.305\ngini = 0.28\nsamples = 95\nvalue = [16, 79]"] ;
665 -> 667 ;
668 [label="gini = 0.0\nsamples = 1\nvalue = [1, 0]"] ;
667 -> 668 ;
669 [label="X[0] <= 0.183\ngini = 0.268\nsamples = 94\nvalue = [15, 79]"] ;
667 -> 669 ;
670 [label="X[0] <= 0.111\ngini = 0.375\nsamples = 36\nvalue = [9, 27]"] ;
669 -> 670 ;
671 [label="X[1] <= 1.202\ngini = 0.305\nsamples = 32\nvalue = [6, 26]"] ;
670 -> 671 ;
672 [label="X[0] <= -0.102\ngini = 0.18\nsamples = 20\nvalue = [2, 18]"] ;
671 -> 672 ;
673 [label="X[0] <= -0.108\ngini = 0.298\nsamples = 11\nvalue = [2, 9]"] ;
672 -> 673 ;
674 [label="X[0] <= -0.184\ngini = 0.18\nsamples = 10\nvalue = [1, 9]"] ;
673 -> 674 ;
675 [label="X[2] <= -0.889\ngini = 0.375\nsamples = 4\nvalue = [1, 3]"] ;
674 -> 675 ;
676 [label="gini = 0.0\nsamples = 1\nvalue = [1, 0]"] ;
675 -> 676 ;
677 [label="gini = 0.0\nsamples = 3\nvalue = [0, 3]"] ;
675 -> 677 ;
678 [label="gini = 0.0\nsamples = 6\nvalue = [0, 6]"] ;
674 -> 678 ;
679 [label="gini = 0.0\nsamples = 1\nvalue = [1, 0]"] ;
673 -> 679 ;
680 [label="gini = 0.0\nsamples = 9\nvalue = [0, 9]"] ;
672 -> 680 ;
681 [label="X[0] <= 0.026\ngini = 0.444\nsamples = 12\nvalue = [4, 8]"] ;
671 -> 681 ;
682 [label="X[2] <= -0.878\ngini = 0.32\nsamples = 10\nvalue = [2, 8]"] ;
681 -> 682 ;
683 [label="X[0] <= -0.218\ngini = 0.5\nsamples = 4\nvalue = [2, 2]"] ;
682 -> 683 ;
684 [label="gini = 0.0\nsamples = 2\nvalue = [0, 2]"] ;
683 -> 684 ;
685 [label="gini = 0.0\nsamples = 2\nvalue = [2, 0]"] ;
683 -> 685 ;
686 [label="gini = 0.0\nsamples = 6\nvalue = [0, 6]"] ;
682 -> 686 ;
687 [label="gini = 0.0\nsamples = 2\nvalue = [2, 0]"] ;
681 -> 687 ;
688 [label="X[2] <= -0.793\ngini = 0.375\nsamples = 4\nvalue = [3, 1]"] ;
670 -> 688 ;
689 [label="gini = 0.0\nsamples = 2\nvalue = [2, 0]"] ;
688 -> 689 ;
690 [label="X[1] <= 0.989\ngini = 0.5\nsamples = 2\nvalue = [1, 1]"] ;
688 -> 690 ;
691 [label="gini = 0.0\nsamples = 1\nvalue = [1, 0]"] ;
690 -> 691 ;
692 [label="gini = 0.0\nsamples = 1\nvalue = [0, 1]"] ;
690 -> 692 ;
693 [label="X[2] <= -0.848\ngini = 0.185\nsamples = 58\nvalue = [6, 52]"] ;
669 -> 693 ;
694 [label="X[2] <= -0.853\ngini = 0.285\nsamples = 29\nvalue = [5, 24]"] ;
693 -> 694 ;
695 [label="X[0] <= 1.232\ngini = 0.198\nsamples = 27\nvalue = [3, 24]"] ;
694 -> 695 ;
696 [label="X[0] <= 0.707\ngini = 0.153\nsamples = 24\nvalue = [2, 22]"] ;
695 -> 696 ;
697 [label="X[0] <= 0.69\ngini = 0.298\nsamples = 11\nvalue = [2, 9]"] ;
696 -> 697 ;
698 [label="X[0] <= 0.388\ngini = 0.18\nsamples = 10\nvalue = [1, 9]"] ;
697 -> 698 ;
699 [label="gini = 0.0\nsamples = 7\nvalue = [0, 7]"] ;
698 -> 699 ;
700 [label="X[0] <= 0.398\ngini = 0.444\nsamples = 3\nvalue = [1, 2]"] ;
698 -> 700 ;
701 [label="gini = 0.0\nsamples = 1\nvalue = [1, 0]"] ;
700 -> 701 ;
702 [label="gini = 0.0\nsamples = 2\nvalue = [0, 2]"] ;
700 -> 702 ;
703 [label="gini = 0.0\nsamples = 1\nvalue = [1, 0]"] ;
697 -> 703 ;
704 [label="gini = 0.0\nsamples = 13\nvalue = [0, 13]"] ;
696 -> 704 ;
705 [label="X[2] <= -0.886\ngini = 0.444\nsamples = 3\nvalue = [1, 2]"] ;
695 -> 705 ;
706 [label="gini = 0.0\nsamples = 2\nvalue = [0, 2]"] ;
705 -> 706 ;
707 [label="gini = 0.0\nsamples = 1\nvalue = [1, 0]"] ;
705 -> 707 ;
708 [label="gini = 0.0\nsamples = 2\nvalue = [2, 0]"] ;
694 -> 708 ;
709 [label="X[0] <= 0.978\ngini = 0.067\nsamples = 29\nvalue = [1, 28]"] ;
693 -> 709 ;
710 [label="gini = 0.0\nsamples = 21\nvalue = [0, 21]"] ;
709 -> 710 ;
711 [label="X[0] <= 0.99\ngini = 0.219\nsamples = 8\nvalue = [1, 7]"] ;
709 -> 711 ;
712 [label="gini = 0.0\nsamples = 1\nvalue = [1, 0]"] ;
711 -> 712 ;
713 [label="gini = 0.0\nsamples = 7\nvalue = [0, 7]"] ;
711 -> 713 ;
714 [label="X[2] <= -0.738\ngini = 0.302\nsamples = 302\nvalue = [56, 246]"] ;
664 -> 714 ;
715 [label="X[0] <= 0.158\ngini = 0.444\nsamples = 3\nvalue = [2, 1]"] ;
714 -> 715 ;
716 [label="gini = 0.0\nsamples = 2\nvalue = [2, 0]"] ;
715 -> 716 ;
717 [label="gini = 0.0\nsamples = 1\nvalue = [0, 1]"] ;
715 -> 717 ;
718 [label="X[0] <= -0.378\ngini = 0.296\nsamples = 299\nvalue = [54, 245]"] ;
714 -> 718 ;
719 [label="X[2] <= -0.526\ngini = 0.372\nsamples = 77\nvalue = [19, 58]"] ;
718 -> 719 ;
720 [label="X[0] <= -0.385\ngini = 0.231\nsamples = 30\nvalue = [4, 26]"] ;
719 -> 720 ;
721 [label="X[0] <= -0.733\ngini = 0.133\nsamples = 28\nvalue = [2, 26]"] ;
720 -> 721 ;
722 [label="X[2] <= -0.661\ngini = 0.5\nsamples = 2\nvalue = [1, 1]"] ;
721 -> 722 ;
723 [label="gini = 0.0\nsamples = 1\nvalue = [0, 1]"] ;
722 -> 723 ;
724 [label="gini = 0.0\nsamples = 1\nvalue = [1, 0]"] ;
722 -> 724 ;
725 [label="X[2] <= -0.633\ngini = 0.074\nsamples = 26\nvalue = [1, 25]"] ;
721 -> 725 ;
726 [label="X[2] <= -0.635\ngini = 0.165\nsamples = 11\nvalue = [1, 10]"] ;
725 -> 726 ;
727 [label="gini = 0.0\nsamples = 10\nvalue = [0, 10]"] ;
726 -> 727 ;
728 [label="gini = 0.0\nsamples = 1\nvalue = [1, 0]"] ;
726 -> 728 ;
729 [label="gini = 0.0\nsamples = 15\nvalue = [0, 15]"] ;
725 -> 729 ;
730 [label="gini = 0.0\nsamples = 2\nvalue = [2, 0]"] ;
720 -> 730 ;
731 [label="X[2] <= -0.361\ngini = 0.435\nsamples = 47\nvalue = [15, 32]"] ;
719 -> 731 ;
732 [label="X[2] <= -0.403\ngini = 0.491\nsamples = 23\nvalue = [10, 13]"] ;
731 -> 732 ;
733 [label="X[2] <= -0.446\ngini = 0.415\nsamples = 17\nvalue = [5, 12]"] ;
732 -> 733 ;
734 [label="X[0] <= -0.422\ngini = 0.486\nsamples = 12\nvalue = [5, 7]"] ;
733 -> 734 ;
735 [label="X[0] <= -0.508\ngini = 0.5\nsamples = 10\nvalue = [5, 5]"] ;
734 -> 735 ;
736 [label="X[2] <= -0.521\ngini = 0.408\nsamples = 7\nvalue = [2, 5]"] ;
735 -> 736 ;
737 [label="gini = 0.0\nsamples = 1\nvalue = [1, 0]"] ;
736 -> 737 ;
738 [label="X[0] <= -0.631\ngini = 0.278\nsamples = 6\nvalue = [1, 5]"] ;
736 -> 738 ;
739 [label="X[2] <= -0.516\ngini = 0.444\nsamples = 3\nvalue = [1, 2]"] ;
738 -> 739 ;
740 [label="gini = 0.0\nsamples = 2\nvalue = [0, 2]"] ;
739 -> 740 ;
741 [label="gini = 0.0\nsamples = 1\nvalue = [1, 0]"] ;
739 -> 741 ;
742 [label="gini = 0.0\nsamples = 3\nvalue = [0, 3]"] ;
738 -> 742 ;
743 [label="gini = 0.0\nsamples = 3\nvalue = [3, 0]"] ;
735 -> 743 ;
744 [label="gini = 0.0\nsamples = 2\nvalue = [0, 2]"] ;
734 -> 744 ;
745 [label="gini = 0.0\nsamples = 5\nvalue = [0, 5]"] ;
733 -> 745 ;
746 [label="X[1] <= 0.776\ngini = 0.278\nsamples = 6\nvalue = [5, 1]"] ;
732 -> 746 ;
747 [label="gini = 0.0\nsamples = 1\nvalue = [0, 1]"] ;
746 -> 747 ;
748 [label="gini = 0.0\nsamples = 5\nvalue = [5, 0]"] ;
746 -> 748 ;
749 [label="X[2] <= -0.293\ngini = 0.33\nsamples = 24\nvalue = [5, 19]"] ;
731 -> 749 ;
750 [label="gini = 0.0\nsamples = 10\nvalue = [0, 10]"] ;
749 -> 750 ;
751 [label="X[1] <= 0.776\ngini = 0.459\nsamples = 14\nvalue = [5, 9]"] ;
749 -> 751 ;
752 [label="gini = 0.0\nsamples = 3\nvalue = [3, 0]"] ;
751 -> 752 ;
753 [label="X[0] <= -0.429\ngini = 0.298\nsamples = 11\nvalue = [2, 9]"] ;
751 -> 753 ;
754 [label="X[2] <= -0.282\ngini = 0.18\nsamples = 10\nvalue = [1, 9]"] ;
753 -> 754 ;
755 [label="gini = 0.0\nsamples = 1\nvalue = [1, 0]"] ;
754 -> 755 ;
756 [label="gini = 0.0\nsamples = 9\nvalue = [0, 9]"] ;
754 -> 756 ;
757 [label="gini = 0.0\nsamples = 1\nvalue = [1, 0]"] ;
753 -> 757 ;
758 [label="X[2] <= -0.553\ngini = 0.266\nsamples = 222\nvalue = [35, 187]"] ;
718 -> 758 ;
759 [label="X[2] <= -0.561\ngini = 0.375\nsamples = 72\nvalue = [18, 54]"] ;
758 -> 759 ;
760 [label="X[1] <= 1.202\ngini = 0.353\nsamples = 70\nvalue = [16, 54]"] ;
759 -> 760 ;
761 [label="X[2] <= -0.604\ngini = 0.254\nsamples = 47\nvalue = [7, 40]"] ;
760 -> 761 ;
762 [label="X[2] <= -0.608\ngini = 0.307\nsamples = 37\nvalue = [7, 30]"] ;
761 -> 762 ;
763 [label="X[2] <= -0.653\ngini = 0.245\nsamples = 35\nvalue = [5, 30]"] ;
762 -> 763 ;
764 [label="X[2] <= -0.658\ngini = 0.33\nsamples = 24\nvalue = [5, 19]"] ;
763 -> 764 ;
765 [label="X[0] <= -0.234\ngini = 0.287\nsamples = 23\nvalue = [4, 19]"] ;
764 -> 765 ;
766 [label="gini = 0.0\nsamples = 1\nvalue = [1, 0]"] ;
765 -> 766 ;
767 [label="X[0] <= 1.558\ngini = 0.236\nsamples = 22\nvalue = [3, 19]"] ;
765 -> 767 ;
768 [label="X[2] <= -0.687\ngini = 0.18\nsamples = 20\nvalue = [2, 18]"] ;
767 -> 768 ;
769 [label="gini = 0.0\nsamples = 13\nvalue = [0, 13]"] ;
768 -> 769 ;
770 [label="X[2] <= -0.678\ngini = 0.408\nsamples = 7\nvalue = [2, 5]"] ;
768 -> 770 ;
771 [label="X[0] <= 0.581\ngini = 0.444\nsamples = 3\nvalue = [2, 1]"] ;
770 -> 771 ;
772 [label="gini = 0.0\nsamples = 2\nvalue = [2, 0]"] ;
771 -> 772 ;
773 [label="gini = 0.0\nsamples = 1\nvalue = [0, 1]"] ;
771 -> 773 ;
774 [label="gini = 0.0\nsamples = 4\nvalue = [0, 4]"] ;
770 -> 774 ;
775 [label="X[1] <= 0.882\ngini = 0.5\nsamples = 2\nvalue = [1, 1]"] ;
767 -> 775 ;
776 [label="gini = 0.0\nsamples = 1\nvalue = [0, 1]"] ;
775 -> 776 ;
777 [label="gini = 0.0\nsamples = 1\nvalue = [1, 0]"] ;
775 -> 777 ;
778 [label="gini = 0.0\nsamples = 1\nvalue = [1, 0]"] ;
764 -> 778 ;
779 [label="gini = 0.0\nsamples = 11\nvalue = [0, 11]"] ;
763 -> 779 ;
780 [label="gini = 0.0\nsamples = 2\nvalue = [2, 0]"] ;
762 -> 780 ;
781 [label="gini = 0.0\nsamples = 10\nvalue = [0, 10]"] ;
761 -> 781 ;
782 [label="X[0] <= 1.029\ngini = 0.476\nsamples = 23\nvalue = [9, 14]"] ;
760 -> 782 ;
783 [label="X[2] <= -0.697\ngini = 0.444\nsamples = 21\nvalue = [7, 14]"] ;
782 -> 783 ;
784 [label="gini = 0.0\nsamples = 2\nvalue = [0, 2]"] ;
783 -> 784 ;
785 [label="X[2] <= -0.681\ngini = 0.465\nsamples = 19\nvalue = [7, 12]"] ;
783 -> 785 ;
786 [label="gini = 0.0\nsamples = 2\nvalue = [2, 0]"] ;
785 -> 786 ;
787 [label="X[0] <= 0.756\ngini = 0.415\nsamples = 17\nvalue = [5, 12]"] ;
785 -> 787 ;
788 [label="X[0] <= 0.576\ngini = 0.473\nsamples = 13\nvalue = [5, 8]"] ;
787 -> 788 ;
789 [label="X[2] <= -0.595\ngini = 0.444\nsamples = 12\nvalue = [4, 8]"] ;
788 -> 789 ;
790 [label="X[2] <= -0.671\ngini = 0.5\nsamples = 8\nvalue = [4, 4]"] ;
789 -> 790 ;
791 [label="gini = 0.0\nsamples = 2\nvalue = [0, 2]"] ;
790 -> 791 ;
792 [label="X[0] <= 0.431\ngini = 0.444\nsamples = 6\nvalue = [4, 2]"] ;
790 -> 792 ;
793 [label="gini = 0.0\nsamples = 4\nvalue = [4, 0]"] ;
792 -> 793 ;
794 [label="gini = 0.0\nsamples = 2\nvalue = [0, 2]"] ;
792 -> 794 ;
795 [label="gini = 0.0\nsamples = 4\nvalue = [0, 4]"] ;
789 -> 795 ;
796 [label="gini = 0.0\nsamples = 1\nvalue = [1, 0]"] ;
788 -> 796 ;
797 [label="gini = 0.0\nsamples = 4\nvalue = [0, 4]"] ;
787 -> 797 ;
798 [label="gini = 0.0\nsamples = 2\nvalue = [2, 0]"] ;
782 -> 798 ;
799 [label="gini = 0.0\nsamples = 2\nvalue = [2, 0]"] ;
759 -> 799 ;
800 [label="X[0] <= 1.448\ngini = 0.201\nsamples = 150\nvalue = [17, 133]"] ;
758 -> 800 ;
801 [label="X[1] <= 0.989\ngini = 0.185\nsamples = 145\nvalue = [15, 130]"] ;
800 -> 801 ;
802 [label="X[0] <= 1.081\ngini = 0.253\nsamples = 74\nvalue = [11, 63]"] ;
801 -> 802 ;
803 [label="X[2] <= -0.207\ngini = 0.208\nsamples = 68\nvalue = [8, 60]"] ;
802 -> 803 ;
804 [label="X[0] <= 0.095\ngini = 0.187\nsamples = 67\nvalue = [7, 60]"] ;
803 -> 804 ;
805 [label="X[0] <= 0.07\ngini = 0.287\nsamples = 23\nvalue = [4, 19]"] ;
804 -> 805 ;
806 [label="X[0] <= -0.05\ngini = 0.236\nsamples = 22\nvalue = [3, 19]"] ;
805 -> 806 ;
807 [label="X[0] <= -0.19\ngini = 0.117\nsamples = 16\nvalue = [1, 15]"] ;
806 -> 807 ;
808 [label="gini = 0.0\nsamples = 9\nvalue = [0, 9]"] ;
807 -> 808 ;
809 [label="X[0] <= -0.165\ngini = 0.245\nsamples = 7\nvalue = [1, 6]"] ;
807 -> 809 ;
810 [label="gini = 0.0\nsamples = 1\nvalue = [1, 0]"] ;
809 -> 810 ;
811 [label="gini = 0.0\nsamples = 6\nvalue = [0, 6]"] ;
809 -> 811 ;
812 [label="X[0] <= -0.041\ngini = 0.444\nsamples = 6\nvalue = [2, 4]"] ;
806 -> 812 ;
813 [label="gini = 0.0\nsamples = 1\nvalue = [1, 0]"] ;
812 -> 813 ;
814 [label="X[2] <= -0.366\ngini = 0.32\nsamples = 5\nvalue = [1, 4]"] ;
812 -> 814 ;
815 [label="X[0] <= 0.024\ngini = 0.5\nsamples = 2\nvalue = [1, 1]"] ;
814 -> 815 ;
816 [label="gini = 0.0\nsamples = 1\nvalue = [1, 0]"] ;
815 -> 816 ;
817 [label="gini = 0.0\nsamples = 1\nvalue = [0, 1]"] ;
815 -> 817 ;
818 [label="gini = 0.0\nsamples = 3\nvalue = [0, 3]"] ;
814 -> 818 ;
819 [label="gini = 0.0\nsamples = 1\nvalue = [1, 0]"] ;
805 -> 819 ;
820 [label="X[2] <= -0.237\ngini = 0.127\nsamples = 44\nvalue = [3, 41]"] ;
804 -> 820 ;
821 [label="X[0] <= 0.433\ngini = 0.095\nsamples = 40\nvalue = [2, 38]"] ;
820 -> 821 ;
822 [label="gini = 0.0\nsamples = 18\nvalue = [0, 18]"] ;
821 -> 822 ;
823 [label="X[0] <= 0.496\ngini = 0.165\nsamples = 22\nvalue = [2, 20]"] ;
821 -> 823 ;
824 [label="gini = 0.0\nsamples = 1\nvalue = [1, 0]"] ;
823 -> 824 ;
825 [label="X[2] <= -0.496\ngini = 0.091\nsamples = 21\nvalue = [1, 20]"] ;
823 -> 825 ;
826 [label="X[0] <= 0.723\ngini = 0.5\nsamples = 2\nvalue = [1, 1]"] ;
825 -> 826 ;
827 [label="gini = 0.0\nsamples = 1\nvalue = [1, 0]"] ;
826 -> 827 ;
828 [label="gini = 0.0\nsamples = 1\nvalue = [0, 1]"] ;
826 -> 828 ;
829 [label="gini = 0.0\nsamples = 19\nvalue = [0, 19]"] ;
825 -> 829 ;
830 [label="X[1] <= 0.776\ngini = 0.375\nsamples = 4\nvalue = [1, 3]"] ;
820 -> 830 ;
831 [label="gini = 0.0\nsamples = 3\nvalue = [0, 3]"] ;
830 -> 831 ;
832 [label="gini = 0.0\nsamples = 1\nvalue = [1, 0]"] ;
830 -> 832 ;
833 [label="gini = 0.0\nsamples = 1\nvalue = [1, 0]"] ;
803 -> 833 ;
834 [label="X[2] <= -0.353\ngini = 0.5\nsamples = 6\nvalue = [3, 3]"] ;
802 -> 834 ;
835 [label="X[0] <= 1.135\ngini = 0.375\nsamples = 4\nvalue = [1, 3]"] ;
834 -> 835 ;
836 [label="gini = 0.0\nsamples = 1\nvalue = [1, 0]"] ;
835 -> 836 ;
837 [label="gini = 0.0\nsamples = 3\nvalue = [0, 3]"] ;
835 -> 837 ;
838 [label="gini = 0.0\nsamples = 2\nvalue = [2, 0]"] ;
834 -> 838 ;
839 [label="X[0] <= 0.055\ngini = 0.106\nsamples = 71\nvalue = [4, 67]"] ;
801 -> 839 ;
840 [label="gini = 0.0\nsamples = 28\nvalue = [0, 28]"] ;
839 -> 840 ;
841 [label="X[0] <= 0.117\ngini = 0.169\nsamples = 43\nvalue = [4, 39]"] ;
839 -> 841 ;
842 [label="X[2] <= -0.356\ngini = 0.444\nsamples = 3\nvalue = [2, 1]"] ;
841 -> 842 ;
843 [label="gini = 0.0\nsamples = 2\nvalue = [2, 0]"] ;
842 -> 843 ;
844 [label="gini = 0.0\nsamples = 1\nvalue = [0, 1]"] ;
842 -> 844 ;
845 [label="X[2] <= -0.255\ngini = 0.095\nsamples = 40\nvalue = [2, 38]"] ;
841 -> 845 ;
846 [label="X[0] <= 0.421\ngini = 0.056\nsamples = 35\nvalue = [1, 34]"] ;
845 -> 846 ;
847 [label="X[2] <= -0.406\ngini = 0.219\nsamples = 8\nvalue = [1, 7]"] ;
846 -> 847 ;
848 [label="gini = 0.0\nsamples = 1\nvalue = [1, 0]"] ;
847 -> 848 ;
849 [label="gini = 0.0\nsamples = 7\nvalue = [0, 7]"] ;
847 -> 849 ;
850 [label="gini = 0.0\nsamples = 27\nvalue = [0, 27]"] ;
846 -> 850 ;
851 [label="X[2] <= -0.246\ngini = 0.32\nsamples = 5\nvalue = [1, 4]"] ;
845 -> 851 ;
852 [label="gini = 0.0\nsamples = 1\nvalue = [1, 0]"] ;
851 -> 852 ;
853 [label="gini = 0.0\nsamples = 4\nvalue = [0, 4]"] ;
851 -> 853 ;
854 [label="X[0] <= 1.477\ngini = 0.48\nsamples = 5\nvalue = [2, 3]"] ;
800 -> 854 ;
855 [label="gini = 0.0\nsamples = 2\nvalue = [2, 0]"] ;
854 -> 855 ;
856 [label="gini = 0.0\nsamples = 3\nvalue = [0, 3]"] ;
854 -> 856 ;
857 [label="X[2] <= -0.492\ngini = 0.398\nsamples = 135\nvalue = [37, 98]"] ;
45 -> 857 ;
858 [label="X[1] <= 0.776\ngini = 0.306\nsamples = 85\nvalue = [16, 69]"] ;
857 -> 858 ;
859 [label="X[2] <= -0.525\ngini = 0.225\nsamples = 62\nvalue = [8, 54]"] ;
858 -> 859 ;
860 [label="X[2] <= -0.532\ngini = 0.256\nsamples = 53\nvalue = [8, 45]"] ;
859 -> 860 ;
861 [label="X[1] <= 0.349\ngini = 0.233\nsamples = 52\nvalue = [7, 45]"] ;
860 -> 861 ;
862 [label="X[1] <= -0.718\ngini = 0.176\nsamples = 41\nvalue = [4, 37]"] ;
861 -> 862 ;
863 [label="X[0] <= 2.8\ngini = 0.337\nsamples = 14\nvalue = [3, 11]"] ;
862 -> 863 ;
864 [label="X[0] <= 1.912\ngini = 0.26\nsamples = 13\nvalue = [2, 11]"] ;
863 -> 864 ;
865 [label="X[0] <= 1.746\ngini = 0.5\nsamples = 4\nvalue = [2, 2]"] ;
864 -> 865 ;
866 [label="gini = 0.0\nsamples = 2\nvalue = [0, 2]"] ;
865 -> 866 ;
867 [label="gini = 0.0\nsamples = 2\nvalue = [2, 0]"] ;
865 -> 867 ;
868 [label="gini = 0.0\nsamples = 9\nvalue = [0, 9]"] ;
864 -> 868 ;
869 [label="gini = 0.0\nsamples = 1\nvalue = [1, 0]"] ;
863 -> 869 ;
870 [label="X[0] <= 2.586\ngini = 0.071\nsamples = 27\nvalue = [1, 26]"] ;
862 -> 870 ;
871 [label="gini = 0.0\nsamples = 22\nvalue = [0, 22]"] ;
870 -> 871 ;
872 [label="X[0] <= 2.782\ngini = 0.32\nsamples = 5\nvalue = [1, 4]"] ;
870 -> 872 ;
873 [label="gini = 0.0\nsamples = 1\nvalue = [1, 0]"] ;
872 -> 873 ;
874 [label="gini = 0.0\nsamples = 4\nvalue = [0, 4]"] ;
872 -> 874 ;
875 [label="X[0] <= 2.31\ngini = 0.397\nsamples = 11\nvalue = [3, 8]"] ;
861 -> 875 ;
876 [label="X[2] <= -0.93\ngini = 0.48\nsamples = 5\nvalue = [3, 2]"] ;
875 -> 876 ;
877 [label="gini = 0.0\nsamples = 1\nvalue = [0, 1]"] ;
876 -> 877 ;
878 [label="X[2] <= -0.658\ngini = 0.375\nsamples = 4\nvalue = [3, 1]"] ;
876 -> 878 ;
879 [label="gini = 0.0\nsamples = 3\nvalue = [3, 0]"] ;
878 -> 879 ;
880 [label="gini = 0.0\nsamples = 1\nvalue = [0, 1]"] ;
878 -> 880 ;
881 [label="gini = 0.0\nsamples = 6\nvalue = [0, 6]"] ;
875 -> 881 ;
882 [label="gini = 0.0\nsamples = 1\nvalue = [1, 0]"] ;
860 -> 882 ;
883 [label="gini = 0.0\nsamples = 9\nvalue = [0, 9]"] ;
859 -> 883 ;
884 [label="X[0] <= 1.71\ngini = 0.454\nsamples = 23\nvalue = [8, 15]"] ;
858 -> 884 ;
885 [label="gini = 0.0\nsamples = 3\nvalue = [3, 0]"] ;
884 -> 885 ;
886 [label="X[0] <= 2.979\ngini = 0.375\nsamples = 20\nvalue = [5, 15]"] ;
884 -> 886 ;
887 [label="X[2] <= -0.651\ngini = 0.278\nsamples = 18\nvalue = [3, 15]"] ;
886 -> 887 ;
888 [label="gini = 0.0\nsamples = 6\nvalue = [0, 6]"] ;
887 -> 888 ;
889 [label="X[2] <= -0.599\ngini = 0.375\nsamples = 12\nvalue = [3, 9]"] ;
887 -> 889 ;
890 [label="gini = 0.0\nsamples = 1\nvalue = [1, 0]"] ;
889 -> 890 ;
891 [label="X[0] <= 2.04\ngini = 0.298\nsamples = 11\nvalue = [2, 9]"] ;
889 -> 891 ;
892 [label="X[0] <= 1.892\ngini = 0.5\nsamples = 2\nvalue = [1, 1]"] ;
891 -> 892 ;
893 [label="gini = 0.0\nsamples = 1\nvalue = [0, 1]"] ;
892 -> 893 ;
894 [label="gini = 0.0\nsamples = 1\nvalue = [1, 0]"] ;
892 -> 894 ;
895 [label="X[2] <= -0.521\ngini = 0.198\nsamples = 9\nvalue = [1, 8]"] ;
891 -> 895 ;
896 [label="gini = 0.0\nsamples = 7\nvalue = [0, 7]"] ;
895 -> 896 ;
897 [label="X[0] <= 2.622\ngini = 0.5\nsamples = 2\nvalue = [1, 1]"] ;
895 -> 897 ;
898 [label="gini = 0.0\nsamples = 1\nvalue = [1, 0]"] ;
897 -> 898 ;
899 [label="gini = 0.0\nsamples = 1\nvalue = [0, 1]"] ;
897 -> 899 ;
900 [label="gini = 0.0\nsamples = 2\nvalue = [2, 0]"] ;
886 -> 900 ;
901 [label="X[2] <= -0.266\ngini = 0.487\nsamples = 50\nvalue = [21, 29]"] ;
857 -> 901 ;
902 [label="X[1] <= 0.776\ngini = 0.5\nsamples = 39\nvalue = [20, 19]"] ;
901 -> 902 ;
903 [label="X[0] <= 1.837\ngini = 0.459\nsamples = 28\nvalue = [18, 10]"] ;
902 -> 903 ;
904 [label="X[2] <= -0.443\ngini = 0.486\nsamples = 12\nvalue = [5, 7]"] ;
903 -> 904 ;
905 [label="gini = 0.0\nsamples = 3\nvalue = [0, 3]"] ;
904 -> 905 ;
906 [label="X[2] <= -0.336\ngini = 0.494\nsamples = 9\nvalue = [5, 4]"] ;
904 -> 906 ;
907 [label="gini = 0.0\nsamples = 3\nvalue = [3, 0]"] ;
906 -> 907 ;
908 [label="X[2] <= -0.288\ngini = 0.444\nsamples = 6\nvalue = [2, 4]"] ;
906 -> 908 ;
909 [label="gini = 0.0\nsamples = 3\nvalue = [0, 3]"] ;
908 -> 909 ;
910 [label="X[0] <= 1.791\ngini = 0.444\nsamples = 3\nvalue = [2, 1]"] ;
908 -> 910 ;
911 [label="gini = 0.0\nsamples = 2\nvalue = [2, 0]"] ;
910 -> 911 ;
912 [label="gini = 0.0\nsamples = 1\nvalue = [0, 1]"] ;
910 -> 912 ;
913 [label="X[0] <= 3.458\ngini = 0.305\nsamples = 16\nvalue = [13, 3]"] ;
903 -> 913 ;
914 [label="X[1] <= 0.349\ngini = 0.133\nsamples = 14\nvalue = [13, 1]"] ;
913 -> 914 ;
915 [label="gini = 0.0\nsamples = 10\nvalue = [10, 0]"] ;
914 -> 915 ;
916 [label="X[2] <= -0.359\ngini = 0.375\nsamples = 4\nvalue = [3, 1]"] ;
914 -> 916 ;
917 [label="gini = 0.0\nsamples = 3\nvalue = [3, 0]"] ;
916 -> 917 ;
918 [label="gini = 0.0\nsamples = 1\nvalue = [0, 1]"] ;
916 -> 918 ;
919 [label="gini = 0.0\nsamples = 2\nvalue = [0, 2]"] ;
913 -> 919 ;
920 [label="X[2] <= -0.462\ngini = 0.298\nsamples = 11\nvalue = [2, 9]"] ;
902 -> 920 ;
921 [label="X[2] <= -0.473\ngini = 0.444\nsamples = 3\nvalue = [2, 1]"] ;
920 -> 921 ;
922 [label="gini = 0.0\nsamples = 1\nvalue = [0, 1]"] ;
921 -> 922 ;
923 [label="gini = 0.0\nsamples = 2\nvalue = [2, 0]"] ;
921 -> 923 ;
924 [label="gini = 0.0\nsamples = 8\nvalue = [0, 8]"] ;
920 -> 924 ;
925 [label="X[0] <= 1.838\ngini = 0.165\nsamples = 11\nvalue = [1, 10]"] ;
901 -> 925 ;
926 [label="X[0] <= 1.786\ngini = 0.444\nsamples = 3\nvalue = [1, 2]"] ;
925 -> 926 ;
927 [label="gini = 0.0\nsamples = 2\nvalue = [0, 2]"] ;
926 -> 927 ;
928 [label="gini = 0.0\nsamples = 1\nvalue = [1, 0]"] ;
926 -> 928 ;
929 [label="gini = 0.0\nsamples = 8\nvalue = [0, 8]"] ;
925 -> 929 ;
930 [label="X[0] <= 0.156\ngini = 0.453\nsamples = 4252\nvalue = [2780, 1472]"] ;
0 -> 930 [labeldistance=2.5, labelangle=-45, headlabel="False"] ;
931 [label="X[2] <= 1.388\ngini = 0.498\nsamples = 2649\nvalue = [1409, 1240]"] ;
930 -> 931 ;
932 [label="X[2] <= 1.381\ngini = 0.49\nsamples = 2223\nvalue = [1266, 957]"] ;
931 -> 932 ;
933 [label="X[0] <= -1.989\ngini = 0.491\nsamples = 2214\nvalue = [1257, 957]"] ;
932 -> 933 ;
934 [label="gini = 0.0\nsamples = 7\nvalue = [7, 0]"] ;
933 -> 934 ;
935 [label="X[0] <= -1.718\ngini = 0.491\nsamples = 2207\nvalue = [1250, 957]"] ;
933 -> 935 ;
936 [label="X[0] <= -1.823\ngini = 0.32\nsamples = 25\nvalue = [5, 20]"] ;
935 -> 936 ;
937 [label="X[2] <= 0.439\ngini = 0.459\nsamples = 14\nvalue = [5, 9]"] ;
936 -> 937 ;
938 [label="X[0] <= -1.85\ngini = 0.219\nsamples = 8\nvalue = [1, 7]"] ;
937 -> 938 ;
939 [label="gini = 0.0\nsamples = 7\nvalue = [0, 7]"] ;
938 -> 939 ;
940 [label="gini = 0.0\nsamples = 1\nvalue = [1, 0]"] ;
938 -> 940 ;
941 [label="X[1] <= -2.531\ngini = 0.444\nsamples = 6\nvalue = [4, 2]"] ;
937 -> 941 ;
942 [label="gini = 0.0\nsamples = 1\nvalue = [0, 1]"] ;
941 -> 942 ;
943 [label="X[0] <= -1.955\ngini = 0.32\nsamples = 5\nvalue = [4, 1]"] ;
941 -> 943 ;
944 [label="X[2] <= 0.533\ngini = 0.5\nsamples = 2\nvalue = [1, 1]"] ;
943 -> 944 ;
945 [label="gini = 0.0\nsamples = 1\nvalue = [0, 1]"] ;
944 -> 945 ;
946 [label="gini = 0.0\nsamples = 1\nvalue = [1, 0]"] ;
944 -> 946 ;
947 [label="gini = 0.0\nsamples = 3\nvalue = [3, 0]"] ;
943 -> 947 ;
948 [label="gini = 0.0\nsamples = 11\nvalue = [0, 11]"] ;
936 -> 948 ;
949 [label="X[0] <= -1.078\ngini = 0.49\nsamples = 2182\nvalue = [1245, 937]"] ;
935 -> 949 ;
950 [label="X[2] <= 0.006\ngini = 0.471\nsamples = 424\nvalue = [263, 161]"] ;
949 -> 950 ;
951 [label="X[2] <= -0.008\ngini = 0.495\nsamples = 51\nvalue = [23, 28]"] ;
950 -> 951 ;
952 [label="X[0] <= -1.128\ngini = 0.5\nsamples = 45\nvalue = [23, 22]"] ;
951 -> 952 ;
953 [label="X[1] <= 1.202\ngini = 0.497\nsamples = 41\nvalue = [19, 22]"] ;
952 -> 953 ;
954 [label="X[2] <= -0.188\ngini = 0.5\nsamples = 38\nvalue = [19, 19]"] ;
953 -> 954 ;
955 [label="gini = 0.0\nsamples = 2\nvalue = [2, 0]"] ;
954 -> 955 ;
956 [label="X[2] <= -0.015\ngini = 0.498\nsamples = 36\nvalue = [17, 19]"] ;
954 -> 956 ;
957 [label="X[0] <= -1.222\ngini = 0.493\nsamples = 34\nvalue = [15, 19]"] ;
956 -> 957 ;
958 [label="X[2] <= -0.026\ngini = 0.499\nsamples = 31\nvalue = [15, 16]"] ;
957 -> 958 ;
959 [label="X[2] <= -0.036\ngini = 0.499\nsamples = 29\nvalue = [15, 14]"] ;
958 -> 959 ;
960 [label="X[2] <= -0.077\ngini = 0.499\nsamples = 27\nvalue = [13, 14]"] ;
959 -> 960 ;
961 [label="X[0] <= -1.282\ngini = 0.473\nsamples = 13\nvalue = [8, 5]"] ;
960 -> 961 ;
962 [label="X[2] <= -0.1\ngini = 0.494\nsamples = 9\nvalue = [4, 5]"] ;
961 -> 962 ;
963 [label="X[0] <= -1.395\ngini = 0.408\nsamples = 7\nvalue = [2, 5]"] ;
962 -> 963 ;
964 [label="gini = 0.0\nsamples = 3\nvalue = [0, 3]"] ;
963 -> 964 ;
965 [label="X[1] <= 0.029\ngini = 0.5\nsamples = 4\nvalue = [2, 2]"] ;
963 -> 965 ;
966 [label="gini = 0.0\nsamples = 2\nvalue = [0, 2]"] ;
965 -> 966 ;
967 [label="gini = 0.0\nsamples = 2\nvalue = [2, 0]"] ;
965 -> 967 ;
968 [label="gini = 0.0\nsamples = 2\nvalue = [2, 0]"] ;
962 -> 968 ;
969 [label="gini = 0.0\nsamples = 4\nvalue = [4, 0]"] ;
961 -> 969 ;
970 [label="X[1] <= 0.136\ngini = 0.459\nsamples = 14\nvalue = [5, 9]"] ;
960 -> 970 ;
971 [label="gini = 0.0\nsamples = 5\nvalue = [0, 5]"] ;
970 -> 971 ;
972 [label="X[2] <= -0.074\ngini = 0.494\nsamples = 9\nvalue = [5, 4]"] ;
970 -> 972 ;
973 [label="gini = 0.0\nsamples = 1\nvalue = [0, 1]"] ;
972 -> 973 ;
974 [label="X[0] <= -1.36\ngini = 0.469\nsamples = 8\nvalue = [5, 3]"] ;
972 -> 974 ;
975 [label="gini = 0.0\nsamples = 3\nvalue = [3, 0]"] ;
974 -> 975 ;
976 [label="X[2] <= -0.048\ngini = 0.48\nsamples = 5\nvalue = [2, 3]"] ;
974 -> 976 ;
977 [label="X[2] <= -0.06\ngini = 0.444\nsamples = 3\nvalue = [2, 1]"] ;
976 -> 977 ;
978 [label="gini = 0.0\nsamples = 1\nvalue = [0, 1]"] ;
977 -> 978 ;
979 [label="gini = 0.0\nsamples = 2\nvalue = [2, 0]"] ;
977 -> 979 ;
980 [label="gini = 0.0\nsamples = 2\nvalue = [0, 2]"] ;
976 -> 980 ;
981 [label="gini = 0.0\nsamples = 2\nvalue = [2, 0]"] ;
959 -> 981 ;
982 [label="gini = 0.0\nsamples = 2\nvalue = [0, 2]"] ;
958 -> 982 ;
983 [label="gini = 0.0\nsamples = 3\nvalue = [0, 3]"] ;
957 -> 983 ;
984 [label="gini = 0.0\nsamples = 2\nvalue = [2, 0]"] ;
956 -> 984 ;
985 [label="gini = 0.0\nsamples = 3\nvalue = [0, 3]"] ;
953 -> 985 ;
986 [label="gini = 0.0\nsamples = 4\nvalue = [4, 0]"] ;
952 -> 986 ;
987 [label="gini = 0.0\nsamples = 6\nvalue = [0, 6]"] ;
951 -> 987 ;
988 [label="X[1] <= 0.136\ngini = 0.459\nsamples = 373\nvalue = [240, 133]"] ;
950 -> 988 ;
989 [label="X[1] <= -2.638\ngini = 0.42\nsamples = 213\nvalue = [149, 64]"] ;
988 -> 989 ;
990 [label="gini = 0.0\nsamples = 2\nvalue = [0, 2]"] ;
989 -> 990 ;
991 [label="X[0] <= -1.671\ngini = 0.415\nsamples = 211\nvalue = [149, 62]"] ;
989 -> 991 ;
992 [label="gini = 0.0\nsamples = 7\nvalue = [7, 0]"] ;
991 -> 992 ;
993 [label="X[0] <= -1.128\ngini = 0.423\nsamples = 204\nvalue = [142, 62]"] ;
991 -> 993 ;
994 [label="X[0] <= -1.136\ngini = 0.442\nsamples = 170\nvalue = [114, 56]"] ;
993 -> 994 ;
995 [label="X[0] <= -1.152\ngini = 0.416\nsamples = 159\nvalue = [112, 47]"] ;
994 -> 995 ;
996 [label="X[2] <= 0.078\ngini = 0.433\nsamples = 148\nvalue = [101, 47]"] ;
995 -> 996 ;
997 [label="X[1] <= -1.785\ngini = 0.469\nsamples = 8\nvalue = [3, 5]"] ;
996 -> 997 ;
998 [label="gini = 0.0\nsamples = 2\nvalue = [2, 0]"] ;
997 -> 998 ;
999 [label="X[0] <= -1.355\ngini = 0.278\nsamples = 6\nvalue = [1, 5]"] ;
997 -> 999 ;
1000 [label="gini = 0.0\nsamples = 4\nvalue = [0, 4]"] ;
999 -> 1000 ;
1001 [label="X[0] <= -1.233\ngini = 0.5\nsamples = 2\nvalue = [1, 1]"] ;
999 -> 1001 ;
1002 [label="gini = 0.0\nsamples = 1\nvalue = [1, 0]"] ;
1001 -> 1002 ;
1003 [label="gini = 0.0\nsamples = 1\nvalue = [0, 1]"] ;
1001 -> 1003 ;
1004 [label="X[0] <= -1.669\ngini = 0.42\nsamples = 140\nvalue = [98, 42]"] ;
996 -> 1004 ;
1005 [label="gini = 0.0\nsamples = 1\nvalue = [0, 1]"] ;
1004 -> 1005 ;
1006 [label="X[0] <= -1.153\ngini = 0.416\nsamples = 139\nvalue = [98, 41]"] ;
1004 -> 1006 ;
1007 [label="X[2] <= 1.357\ngini = 0.412\nsamples = 138\nvalue = [98, 40]"] ;
1006 -> 1007 ;
1008 [label="X[2] <= 0.283\ngini = 0.407\nsamples = 137\nvalue = [98, 39]"] ;
1007 -> 1008 ;
1009 [label="X[0] <= -1.539\ngini = 0.48\nsamples = 25\nvalue = [15, 10]"] ;
1008 -> 1009 ;
1010 [label="gini = 0.0\nsamples = 4\nvalue = [0, 4]"] ;
1009 -> 1010 ;
1011 [label="X[2] <= 0.208\ngini = 0.408\nsamples = 21\nvalue = [15, 6]"] ;
1009 -> 1011 ;
1012 [label="X[2] <= 0.147\ngini = 0.165\nsamples = 11\nvalue = [10, 1]"] ;
1011 -> 1012 ;
1013 [label="X[2] <= 0.116\ngini = 0.32\nsamples = 5\nvalue = [4, 1]"] ;
1012 -> 1013 ;
1014 [label="gini = 0.0\nsamples = 4\nvalue = [4, 0]"] ;
1013 -> 1014 ;
1015 [label="gini = 0.0\nsamples = 1\nvalue = [0, 1]"] ;
1013 -> 1015 ;
1016 [label="gini = 0.0\nsamples = 6\nvalue = [6, 0]"] ;
1012 -> 1016 ;
1017 [label="X[0] <= -1.291\ngini = 0.5\nsamples = 10\nvalue = [5, 5]"] ;
1011 -> 1017 ;
1018 [label="X[0] <= -1.434\ngini = 0.32\nsamples = 5\nvalue = [1, 4]"] ;
1017 -> 1018 ;
1019 [label="X[2] <= 0.269\ngini = 0.5\nsamples = 2\nvalue = [1, 1]"] ;
1018 -> 1019 ;
1020 [label="gini = 0.0\nsamples = 1\nvalue = [1, 0]"] ;
1019 -> 1020 ;
1021 [label="gini = 0.0\nsamples = 1\nvalue = [0, 1]"] ;
1019 -> 1021 ;
1022 [label="gini = 0.0\nsamples = 3\nvalue = [0, 3]"] ;
1018 -> 1022 ;
1023 [label="X[0] <= -1.215\ngini = 0.32\nsamples = 5\nvalue = [4, 1]"] ;
1017 -> 1023 ;
1024 [label="gini = 0.0\nsamples = 3\nvalue = [3, 0]"] ;
1023 -> 1024 ;
1025 [label="X[1] <= -0.078\ngini = 0.5\nsamples = 2\nvalue = [1, 1]"] ;
1023 -> 1025 ;
1026 [label="gini = 0.0\nsamples = 1\nvalue = [0, 1]"] ;
1025 -> 1026 ;
1027 [label="gini = 0.0\nsamples = 1\nvalue = [1, 0]"] ;
1025 -> 1027 ;
1028 [label="X[0] <= -1.296\ngini = 0.384\nsamples = 112\nvalue = [83, 29]"] ;
1008 -> 1028 ;
1029 [label="X[1] <= -0.931\ngini = 0.312\nsamples = 62\nvalue = [50, 12]"] ;
1028 -> 1029 ;
1030 [label="X[0] <= -1.528\ngini = 0.423\nsamples = 23\nvalue = [16, 7]"] ;
1029 -> 1030 ;
1031 [label="X[2] <= 0.58\ngini = 0.48\nsamples = 5\nvalue = [2, 3]"] ;
1030 -> 1031 ;
1032 [label="X[0] <= -1.637\ngini = 0.444\nsamples = 3\nvalue = [2, 1]"] ;
1031 -> 1032 ;
1033 [label="gini = 0.0\nsamples = 1\nvalue = [0, 1]"] ;
1032 -> 1033 ;
1034 [label="gini = 0.0\nsamples = 2\nvalue = [2, 0]"] ;
1032 -> 1034 ;
1035 [label="gini = 0.0\nsamples = 2\nvalue = [0, 2]"] ;
1031 -> 1035 ;
1036 [label="X[0] <= -1.42\ngini = 0.346\nsamples = 18\nvalue = [14, 4]"] ;
1030 -> 1036 ;
1037 [label="gini = 0.0\nsamples = 6\nvalue = [6, 0]"] ;
1036 -> 1037 ;
1038 [label="X[0] <= -1.34\ngini = 0.444\nsamples = 12\nvalue = [8, 4]"] ;
1036 -> 1038 ;
1039 [label="X[0] <= -1.361\ngini = 0.5\nsamples = 8\nvalue = [4, 4]"] ;
1038 -> 1039 ;
1040 [label="X[1] <= -2.211\ngini = 0.444\nsamples = 6\nvalue = [4, 2]"] ;
1039 -> 1040 ;
1041 [label="gini = 0.0\nsamples = 3\nvalue = [3, 0]"] ;
1040 -> 1041 ;
1042 [label="X[0] <= -1.377\ngini = 0.444\nsamples = 3\nvalue = [1, 2]"] ;
1040 -> 1042 ;
1043 [label="gini = 0.0\nsamples = 2\nvalue = [0, 2]"] ;
1042 -> 1043 ;
1044 [label="gini = 0.0\nsamples = 1\nvalue = [1, 0]"] ;
1042 -> 1044 ;
1045 [label="gini = 0.0\nsamples = 2\nvalue = [0, 2]"] ;
1039 -> 1045 ;
1046 [label="gini = 0.0\nsamples = 4\nvalue = [4, 0]"] ;
1038 -> 1046 ;
1047 [label="X[1] <= -0.718\ngini = 0.224\nsamples = 39\nvalue = [34, 5]"] ;
1029 -> 1047 ;
1048 [label="gini = 0.0\nsamples = 7\nvalue = [7, 0]"] ;
1047 -> 1048 ;
1049 [label="X[0] <= -1.315\ngini = 0.264\nsamples = 32\nvalue = [27, 5]"] ;
1047 -> 1049 ;
1050 [label="X[2] <= 0.662\ngini = 0.231\nsamples = 30\nvalue = [26, 4]"] ;
1049 -> 1050 ;
1051 [label="gini = 0.0\nsamples = 10\nvalue = [10, 0]"] ;
1050 -> 1051 ;
1052 [label="X[2] <= 0.715\ngini = 0.32\nsamples = 20\nvalue = [16, 4]"] ;
1050 -> 1052 ;
1053 [label="gini = 0.0\nsamples = 1\nvalue = [0, 1]"] ;
1052 -> 1053 ;
1054 [label="X[0] <= -1.471\ngini = 0.266\nsamples = 19\nvalue = [16, 3]"] ;
1052 -> 1054 ;
1055 [label="X[1] <= -0.078\ngini = 0.42\nsamples = 10\nvalue = [7, 3]"] ;
1054 -> 1055 ;
1056 [label="X[0] <= -1.492\ngini = 0.346\nsamples = 9\nvalue = [7, 2]"] ;
1055 -> 1056 ;
1057 [label="X[2] <= 1.052\ngini = 0.219\nsamples = 8\nvalue = [7, 1]"] ;
1056 -> 1057 ;
1058 [label="gini = 0.0\nsamples = 4\nvalue = [4, 0]"] ;
1057 -> 1058 ;
1059 [label="X[2] <= 1.088\ngini = 0.375\nsamples = 4\nvalue = [3, 1]"] ;
1057 -> 1059 ;
1060 [label="gini = 0.0\nsamples = 1\nvalue = [0, 1]"] ;
1059 -> 1060 ;
1061 [label="gini = 0.0\nsamples = 3\nvalue = [3, 0]"] ;
1059 -> 1061 ;
1062 [label="gini = 0.0\nsamples = 1\nvalue = [0, 1]"] ;
1056 -> 1062 ;
1063 [label="gini = 0.0\nsamples = 1\nvalue = [0, 1]"] ;
1055 -> 1063 ;
1064 [label="gini = 0.0\nsamples = 9\nvalue = [9, 0]"] ;
1054 -> 1064 ;
1065 [label="X[2] <= 0.438\ngini = 0.5\nsamples = 2\nvalue = [1, 1]"] ;
1049 -> 1065 ;
1066 [label="gini = 0.0\nsamples = 1\nvalue = [0, 1]"] ;
1065 -> 1066 ;
1067 [label="gini = 0.0\nsamples = 1\nvalue = [1, 0]"] ;
1065 -> 1067 ;
1068 [label="X[0] <= -1.28\ngini = 0.449\nsamples = 50\nvalue = [33, 17]"] ;
1028 -> 1068 ;
1069 [label="gini = 0.0\nsamples = 4\nvalue = [0, 4]"] ;
1068 -> 1069 ;
1070 [label="X[2] <= 0.344\ngini = 0.405\nsamples = 46\nvalue = [33, 13]"] ;
1068 -> 1070 ;
1071 [label="gini = 0.0\nsamples = 1\nvalue = [0, 1]"] ;
1070 -> 1071 ;
1072 [label="X[0] <= -1.271\ngini = 0.391\nsamples = 45\nvalue = [33, 12]"] ;
1070 -> 1072 ;
1073 [label="gini = 0.0\nsamples = 4\nvalue = [4, 0]"] ;
1072 -> 1073 ;
1074 [label="X[0] <= -1.233\ngini = 0.414\nsamples = 41\nvalue = [29, 12]"] ;
1072 -> 1074 ;
1075 [label="X[0] <= -1.246\ngini = 0.494\nsamples = 9\nvalue = [4, 5]"] ;
1074 -> 1075 ;
1076 [label="X[2] <= 1.029\ngini = 0.444\nsamples = 6\nvalue = [4, 2]"] ;
1075 -> 1076 ;
1077 [label="gini = 0.0\nsamples = 3\nvalue = [3, 0]"] ;
1076 -> 1077 ;
1078 [label="X[2] <= 1.257\ngini = 0.444\nsamples = 3\nvalue = [1, 2]"] ;
1076 -> 1078 ;
1079 [label="gini = 0.0\nsamples = 2\nvalue = [0, 2]"] ;
1078 -> 1079 ;
1080 [label="gini = 0.0\nsamples = 1\nvalue = [1, 0]"] ;
1078 -> 1080 ;
1081 [label="gini = 0.0\nsamples = 3\nvalue = [0, 3]"] ;
1075 -> 1081 ;
1082 [label="X[1] <= -0.931\ngini = 0.342\nsamples = 32\nvalue = [25, 7]"] ;
1074 -> 1082 ;
1083 [label="X[2] <= 0.972\ngini = 0.473\nsamples = 13\nvalue = [8, 5]"] ;
1082 -> 1083 ;
1084 [label="X[0] <= -1.224\ngini = 0.5\nsamples = 10\nvalue = [5, 5]"] ;
1083 -> 1084 ;
1085 [label="gini = 0.0\nsamples = 3\nvalue = [3, 0]"] ;
1084 -> 1085 ;
1086 [label="X[2] <= 0.557\ngini = 0.408\nsamples = 7\nvalue = [2, 5]"] ;
1084 -> 1086 ;
1087 [label="gini = 0.0\nsamples = 1\nvalue = [1, 0]"] ;
1086 -> 1087 ;
1088 [label="X[1] <= -1.358\ngini = 0.278\nsamples = 6\nvalue = [1, 5]"] ;
1086 -> 1088 ;
1089 [label="gini = 0.0\nsamples = 3\nvalue = [0, 3]"] ;
1088 -> 1089 ;
1090 [label="X[0] <= -1.181\ngini = 0.444\nsamples = 3\nvalue = [1, 2]"] ;
1088 -> 1090 ;
1091 [label="gini = 0.0\nsamples = 1\nvalue = [1, 0]"] ;
1090 -> 1091 ;
1092 [label="gini = 0.0\nsamples = 2\nvalue = [0, 2]"] ;
1090 -> 1092 ;
1093 [label="gini = 0.0\nsamples = 3\nvalue = [3, 0]"] ;
1083 -> 1093 ;
1094 [label="X[2] <= 0.543\ngini = 0.188\nsamples = 19\nvalue = [17, 2]"] ;
1082 -> 1094 ;
1095 [label="X[0] <= -1.204\ngini = 0.444\nsamples = 6\nvalue = [4, 2]"] ;
1094 -> 1095 ;
1096 [label="gini = 0.0\nsamples = 3\nvalue = [3, 0]"] ;
1095 -> 1096 ;
1097 [label="X[1] <= -0.078\ngini = 0.444\nsamples = 3\nvalue = [1, 2]"] ;
1095 -> 1097 ;
1098 [label="gini = 0.0\nsamples = 1\nvalue = [1, 0]"] ;
1097 -> 1098 ;
1099 [label="gini = 0.0\nsamples = 2\nvalue = [0, 2]"] ;
1097 -> 1099 ;
1100 [label="gini = 0.0\nsamples = 13\nvalue = [13, 0]"] ;
1094 -> 1100 ;
1101 [label="gini = 0.0\nsamples = 1\nvalue = [0, 1]"] ;
1007 -> 1101 ;
1102 [label="gini = 0.0\nsamples = 1\nvalue = [0, 1]"] ;
1006 -> 1102 ;
1103 [label="gini = 0.0\nsamples = 11\nvalue = [11, 0]"] ;
995 -> 1103 ;
1104 [label="X[1] <= -0.291\ngini = 0.298\nsamples = 11\nvalue = [2, 9]"] ;
994 -> 1104 ;
1105 [label="gini = 0.0\nsamples = 8\nvalue = [0, 8]"] ;
1104 -> 1105 ;
1106 [label="X[2] <= 0.788\ngini = 0.444\nsamples = 3\nvalue = [2, 1]"] ;
1104 -> 1106 ;
1107 [label="gini = 0.0\nsamples = 1\nvalue = [0, 1]"] ;
1106 -> 1107 ;
1108 [label="gini = 0.0\nsamples = 2\nvalue = [2, 0]"] ;
1106 -> 1108 ;
1109 [label="X[2] <= 0.807\ngini = 0.291\nsamples = 34\nvalue = [28, 6]"] ;
993 -> 1109 ;
1110 [label="X[2] <= 0.271\ngini = 0.083\nsamples = 23\nvalue = [22, 1]"] ;
1109 -> 1110 ;
1111 [label="X[2] <= 0.248\ngini = 0.18\nsamples = 10\nvalue = [9, 1]"] ;
1110 -> 1111 ;
1112 [label="gini = 0.0\nsamples = 9\nvalue = [9, 0]"] ;
1111 -> 1112 ;
1113 [label="gini = 0.0\nsamples = 1\nvalue = [0, 1]"] ;
1111 -> 1113 ;
1114 [label="gini = 0.0\nsamples = 13\nvalue = [13, 0]"] ;
1110 -> 1114 ;
1115 [label="X[0] <= -1.089\ngini = 0.496\nsamples = 11\nvalue = [6, 5]"] ;
1109 -> 1115 ;
1116 [label="X[2] <= 1.134\ngini = 0.444\nsamples = 9\nvalue = [6, 3]"] ;
1115 -> 1116 ;
1117 [label="X[1] <= -1.998\ngini = 0.49\nsamples = 7\nvalue = [4, 3]"] ;
1116 -> 1117 ;
1118 [label="gini = 0.0\nsamples = 2\nvalue = [2, 0]"] ;
1117 -> 1118 ;
1119 [label="X[0] <= -1.093\ngini = 0.48\nsamples = 5\nvalue = [2, 3]"] ;
1117 -> 1119 ;
1120 [label="X[0] <= -1.103\ngini = 0.375\nsamples = 4\nvalue = [1, 3]"] ;
1119 -> 1120 ;
1121 [label="X[0] <= -1.111\ngini = 0.5\nsamples = 2\nvalue = [1, 1]"] ;
1120 -> 1121 ;
1122 [label="gini = 0.0\nsamples = 1\nvalue = [0, 1]"] ;
1121 -> 1122 ;
1123 [label="gini = 0.0\nsamples = 1\nvalue = [1, 0]"] ;
1121 -> 1123 ;
1124 [label="gini = 0.0\nsamples = 2\nvalue = [0, 2]"] ;
1120 -> 1124 ;
1125 [label="gini = 0.0\nsamples = 1\nvalue = [1, 0]"] ;
1119 -> 1125 ;
1126 [label="gini = 0.0\nsamples = 2\nvalue = [2, 0]"] ;
1116 -> 1126 ;
1127 [label="gini = 0.0\nsamples = 2\nvalue = [0, 2]"] ;
1115 -> 1127 ;
1128 [label="X[1] <= 0.349\ngini = 0.491\nsamples = 160\nvalue = [91, 69]"] ;
988 -> 1128 ;
1129 [label="X[2] <= 1.009\ngini = 0.466\nsamples = 27\nvalue = [10, 17]"] ;
1128 -> 1129 ;
1130 [label="X[2] <= 0.723\ngini = 0.397\nsamples = 22\nvalue = [6, 16]"] ;
1129 -> 1130 ;
1131 [label="X[2] <= 0.674\ngini = 0.469\nsamples = 16\nvalue = [6, 10]"] ;
1130 -> 1131 ;
1132 [label="X[0] <= -1.129\ngini = 0.408\nsamples = 14\nvalue = [4, 10]"] ;
1131 -> 1132 ;
1133 [label="X[0] <= -1.523\ngini = 0.298\nsamples = 11\nvalue = [2, 9]"] ;
1132 -> 1133 ;
1134 [label="gini = 0.0\nsamples = 1\nvalue = [1, 0]"] ;
1133 -> 1134 ;
1135 [label="X[2] <= 0.164\ngini = 0.18\nsamples = 10\nvalue = [1, 9]"] ;
1133 -> 1135 ;
1136 [label="X[0] <= -1.336\ngini = 0.5\nsamples = 2\nvalue = [1, 1]"] ;
1135 -> 1136 ;
1137 [label="gini = 0.0\nsamples = 1\nvalue = [1, 0]"] ;
1136 -> 1137 ;
1138 [label="gini = 0.0\nsamples = 1\nvalue = [0, 1]"] ;
1136 -> 1138 ;
1139 [label="gini = 0.0\nsamples = 8\nvalue = [0, 8]"] ;
1135 -> 1139 ;
1140 [label="X[2] <= 0.491\ngini = 0.444\nsamples = 3\nvalue = [2, 1]"] ;
1132 -> 1140 ;
1141 [label="gini = 0.0\nsamples = 2\nvalue = [2, 0]"] ;
1140 -> 1141 ;
1142 [label="gini = 0.0\nsamples = 1\nvalue = [0, 1]"] ;
1140 -> 1142 ;
1143 [label="gini = 0.0\nsamples = 2\nvalue = [2, 0]"] ;
1131 -> 1143 ;
1144 [label="gini = 0.0\nsamples = 6\nvalue = [0, 6]"] ;
1130 -> 1144 ;
1145 [label="X[0] <= -1.212\ngini = 0.32\nsamples = 5\nvalue = [4, 1]"] ;
1129 -> 1145 ;
1146 [label="gini = 0.0\nsamples = 3\nvalue = [3, 0]"] ;
1145 -> 1146 ;
1147 [label="X[2] <= 1.113\ngini = 0.5\nsamples = 2\nvalue = [1, 1]"] ;
1145 -> 1147 ;
1148 [label="gini = 0.0\nsamples = 1\nvalue = [1, 0]"] ;
1147 -> 1148 ;
1149 [label="gini = 0.0\nsamples = 1\nvalue = [0, 1]"] ;
1147 -> 1149 ;
1150 [label="X[1] <= 1.202\ngini = 0.476\nsamples = 133\nvalue = [81, 52]"] ;
1128 -> 1150 ;
1151 [label="X[2] <= 0.854\ngini = 0.491\nsamples = 104\nvalue = [59, 45]"] ;
1150 -> 1151 ;
1152 [label="X[1] <= 0.989\ngini = 0.457\nsamples = 65\nvalue = [42, 23]"] ;
1151 -> 1152 ;
1153 [label="X[0] <= -1.695\ngini = 0.391\nsamples = 45\nvalue = [33, 12]"] ;
1152 -> 1153 ;
1154 [label="gini = 0.0\nsamples = 1\nvalue = [0, 1]"] ;
1153 -> 1154 ;
1155 [label="X[0] <= -1.097\ngini = 0.375\nsamples = 44\nvalue = [33, 11]"] ;
1153 -> 1155 ;
1156 [label="X[2] <= 0.386\ngini = 0.343\nsamples = 41\nvalue = [32, 9]"] ;
1155 -> 1156 ;
1157 [label="X[0] <= -1.234\ngini = 0.432\nsamples = 19\nvalue = [13, 6]"] ;
1156 -> 1157 ;
1158 [label="X[1] <= 0.562\ngini = 0.337\nsamples = 14\nvalue = [11, 3]"] ;
1157 -> 1158 ;
1159 [label="X[0] <= -1.319\ngini = 0.5\nsamples = 6\nvalue = [3, 3]"] ;
1158 -> 1159 ;
1160 [label="X[2] <= 0.243\ngini = 0.375\nsamples = 4\nvalue = [1, 3]"] ;
1159 -> 1160 ;
1161 [label="gini = 0.0\nsamples = 2\nvalue = [0, 2]"] ;
1160 -> 1161 ;
1162 [label="X[0] <= -1.441\ngini = 0.5\nsamples = 2\nvalue = [1, 1]"] ;
1160 -> 1162 ;
1163 [label="gini = 0.0\nsamples = 1\nvalue = [0, 1]"] ;
1162 -> 1163 ;
1164 [label="gini = 0.0\nsamples = 1\nvalue = [1, 0]"] ;
1162 -> 1164 ;
1165 [label="gini = 0.0\nsamples = 2\nvalue = [2, 0]"] ;
1159 -> 1165 ;
1166 [label="gini = 0.0\nsamples = 8\nvalue = [8, 0]"] ;
1158 -> 1166 ;
1167 [label="X[0] <= -1.11\ngini = 0.48\nsamples = 5\nvalue = [2, 3]"] ;
1157 -> 1167 ;
1168 [label="gini = 0.0\nsamples = 3\nvalue = [0, 3]"] ;
1167 -> 1168 ;
1169 [label="gini = 0.0\nsamples = 2\nvalue = [2, 0]"] ;
1167 -> 1169 ;
1170 [label="X[0] <= -1.629\ngini = 0.236\nsamples = 22\nvalue = [19, 3]"] ;
1156 -> 1170 ;
1171 [label="gini = 0.0\nsamples = 1\nvalue = [0, 1]"] ;
1170 -> 1171 ;
1172 [label="X[2] <= 0.674\ngini = 0.172\nsamples = 21\nvalue = [19, 2]"] ;
1170 -> 1172 ;
1173 [label="gini = 0.0\nsamples = 11\nvalue = [11, 0]"] ;
1172 -> 1173 ;
1174 [label="X[2] <= 0.678\ngini = 0.32\nsamples = 10\nvalue = [8, 2]"] ;
1172 -> 1174 ;
1175 [label="gini = 0.0\nsamples = 1\nvalue = [0, 1]"] ;
1174 -> 1175 ;
1176 [label="X[0] <= -1.234\ngini = 0.198\nsamples = 9\nvalue = [8, 1]"] ;
1174 -> 1176 ;
1177 [label="X[1] <= 0.562\ngini = 0.444\nsamples = 3\nvalue = [2, 1]"] ;
1176 -> 1177 ;
1178 [label="gini = 0.0\nsamples = 2\nvalue = [2, 0]"] ;
1177 -> 1178 ;
1179 [label="gini = 0.0\nsamples = 1\nvalue = [0, 1]"] ;
1177 -> 1179 ;
1180 [label="gini = 0.0\nsamples = 6\nvalue = [6, 0]"] ;
1176 -> 1180 ;
1181 [label="X[0] <= -1.09\ngini = 0.444\nsamples = 3\nvalue = [1, 2]"] ;
1155 -> 1181 ;
1182 [label="gini = 0.0\nsamples = 2\nvalue = [0, 2]"] ;
1181 -> 1182 ;
1183 [label="gini = 0.0\nsamples = 1\nvalue = [1, 0]"] ;
1181 -> 1183 ;
1184 [label="X[0] <= -1.544\ngini = 0.495\nsamples = 20\nvalue = [9, 11]"] ;
1152 -> 1184 ;
1185 [label="gini = 0.0\nsamples = 3\nvalue = [3, 0]"] ;
1184 -> 1185 ;
1186 [label="X[0] <= -1.125\ngini = 0.457\nsamples = 17\nvalue = [6, 11]"] ;
1184 -> 1186 ;
1187 [label="X[0] <= -1.286\ngini = 0.43\nsamples = 16\nvalue = [5, 11]"] ;
1186 -> 1187 ;
1188 [label="X[2] <= 0.688\ngini = 0.486\nsamples = 12\nvalue = [5, 7]"] ;
1187 -> 1188 ;
1189 [label="X[0] <= -1.3\ngini = 0.42\nsamples = 10\nvalue = [3, 7]"] ;
1188 -> 1189 ;
1190 [label="X[0] <= -1.428\ngini = 0.346\nsamples = 9\nvalue = [2, 7]"] ;
1189 -> 1190 ;
1191 [label="X[2] <= 0.399\ngini = 0.5\nsamples = 4\nvalue = [2, 2]"] ;
1190 -> 1191 ;
1192 [label="gini = 0.0\nsamples = 2\nvalue = [2, 0]"] ;
1191 -> 1192 ;
1193 [label="gini = 0.0\nsamples = 2\nvalue = [0, 2]"] ;
1191 -> 1193 ;
1194 [label="gini = 0.0\nsamples = 5\nvalue = [0, 5]"] ;
1190 -> 1194 ;
1195 [label="gini = 0.0\nsamples = 1\nvalue = [1, 0]"] ;
1189 -> 1195 ;
1196 [label="gini = 0.0\nsamples = 2\nvalue = [2, 0]"] ;
1188 -> 1196 ;
1197 [label="gini = 0.0\nsamples = 4\nvalue = [0, 4]"] ;
1187 -> 1197 ;
1198 [label="gini = 0.0\nsamples = 1\nvalue = [1, 0]"] ;
1186 -> 1198 ;
1199 [label="X[2] <= 0.894\ngini = 0.492\nsamples = 39\nvalue = [17, 22]"] ;
1151 -> 1199 ;
1200 [label="gini = 0.0\nsamples = 3\nvalue = [0, 3]"] ;
1199 -> 1200 ;
1201 [label="X[2] <= 0.939\ngini = 0.498\nsamples = 36\nvalue = [17, 19]"] ;
1199 -> 1201 ;
1202 [label="gini = 0.0\nsamples = 3\nvalue = [3, 0]"] ;
1201 -> 1202 ;
1203 [label="X[0] <= -1.691\ngini = 0.489\nsamples = 33\nvalue = [14, 19]"] ;
1201 -> 1203 ;
1204 [label="gini = 0.0\nsamples = 1\nvalue = [1, 0]"] ;
1203 -> 1204 ;
1205 [label="X[1] <= 0.776\ngini = 0.482\nsamples = 32\nvalue = [13, 19]"] ;
1203 -> 1205 ;
1206 [label="X[0] <= -1.291\ngini = 0.498\nsamples = 15\nvalue = [8, 7]"] ;
1205 -> 1206 ;
1207 [label="X[2] <= 1.13\ngini = 0.375\nsamples = 8\nvalue = [6, 2]"] ;
1206 -> 1207 ;
1208 [label="gini = 0.0\nsamples = 4\nvalue = [4, 0]"] ;
1207 -> 1208 ;
1209 [label="X[0] <= -1.59\ngini = 0.5\nsamples = 4\nvalue = [2, 2]"] ;
1207 -> 1209 ;
1210 [label="gini = 0.0\nsamples = 1\nvalue = [1, 0]"] ;
1209 -> 1210 ;
1211 [label="X[0] <= -1.332\ngini = 0.444\nsamples = 3\nvalue = [1, 2]"] ;
1209 -> 1211 ;
1212 [label="gini = 0.0\nsamples = 2\nvalue = [0, 2]"] ;
1211 -> 1212 ;
1213 [label="gini = 0.0\nsamples = 1\nvalue = [1, 0]"] ;
1211 -> 1213 ;
1214 [label="X[1] <= 0.562\ngini = 0.408\nsamples = 7\nvalue = [2, 5]"] ;
1206 -> 1214 ;
1215 [label="gini = 0.0\nsamples = 4\nvalue = [0, 4]"] ;
1214 -> 1215 ;
1216 [label="X[0] <= -1.159\ngini = 0.444\nsamples = 3\nvalue = [2, 1]"] ;
1214 -> 1216 ;
1217 [label="gini = 0.0\nsamples = 2\nvalue = [2, 0]"] ;
1216 -> 1217 ;
1218 [label="gini = 0.0\nsamples = 1\nvalue = [0, 1]"] ;
1216 -> 1218 ;
1219 [label="X[0] <= -1.289\ngini = 0.415\nsamples = 17\nvalue = [5, 12]"] ;
1205 -> 1219 ;
1220 [label="gini = 0.0\nsamples = 7\nvalue = [0, 7]"] ;
1219 -> 1220 ;
1221 [label="X[2] <= 1.224\ngini = 0.5\nsamples = 10\nvalue = [5, 5]"] ;
1219 -> 1221 ;
1222 [label="X[2] <= 1.171\ngini = 0.278\nsamples = 6\nvalue = [1, 5]"] ;
1221 -> 1222 ;
1223 [label="gini = 0.0\nsamples = 3\nvalue = [0, 3]"] ;
1222 -> 1223 ;
1224 [label="X[2] <= 1.187\ngini = 0.444\nsamples = 3\nvalue = [1, 2]"] ;
1222 -> 1224 ;
1225 [label="gini = 0.0\nsamples = 1\nvalue = [1, 0]"] ;
1224 -> 1225 ;
1226 [label="gini = 0.0\nsamples = 2\nvalue = [0, 2]"] ;
1224 -> 1226 ;
1227 [label="gini = 0.0\nsamples = 4\nvalue = [4, 0]"] ;
1221 -> 1227 ;
1228 [label="X[0] <= -1.233\ngini = 0.366\nsamples = 29\nvalue = [22, 7]"] ;
1150 -> 1228 ;
1229 [label="X[2] <= 0.981\ngini = 0.484\nsamples = 17\nvalue = [10, 7]"] ;
1228 -> 1229 ;
1230 [label="X[2] <= 0.485\ngini = 0.497\nsamples = 13\nvalue = [6, 7]"] ;
1229 -> 1230 ;
1231 [label="X[2] <= 0.332\ngini = 0.408\nsamples = 7\nvalue = [5, 2]"] ;
1230 -> 1231 ;
1232 [label="X[0] <= -1.296\ngini = 0.5\nsamples = 4\nvalue = [2, 2]"] ;
1231 -> 1232 ;
1233 [label="gini = 0.0\nsamples = 2\nvalue = [0, 2]"] ;
1232 -> 1233 ;
1234 [label="gini = 0.0\nsamples = 2\nvalue = [2, 0]"] ;
1232 -> 1234 ;
1235 [label="gini = 0.0\nsamples = 3\nvalue = [3, 0]"] ;
1231 -> 1235 ;
1236 [label="X[0] <= -1.403\ngini = 0.278\nsamples = 6\nvalue = [1, 5]"] ;
1230 -> 1236 ;
1237 [label="gini = 0.0\nsamples = 3\nvalue = [0, 3]"] ;
1236 -> 1237 ;
1238 [label="X[0] <= -1.329\ngini = 0.444\nsamples = 3\nvalue = [1, 2]"] ;
1236 -> 1238 ;
1239 [label="gini = 0.0\nsamples = 1\nvalue = [1, 0]"] ;
1238 -> 1239 ;
1240 [label="gini = 0.0\nsamples = 2\nvalue = [0, 2]"] ;
1238 -> 1240 ;
1241 [label="gini = 0.0\nsamples = 4\nvalue = [4, 0]"] ;
1229 -> 1241 ;
1242 [label="gini = 0.0\nsamples = 12\nvalue = [12, 0]"] ;
1228 -> 1242 ;
1243 [label="X[0] <= -0.762\ngini = 0.493\nsamples = 1758\nvalue = [982, 776]"] ;
949 -> 1243 ;
1244 [label="X[1] <= -0.291\ngini = 0.5\nsamples = 428\nvalue = [212, 216]"] ;
1243 -> 1244 ;
1245 [label="X[2] <= 1.157\ngini = 0.48\nsamples = 163\nvalue = [65, 98]"] ;
1244 -> 1245 ;
1246 [label="X[2] <= -0.066\ngini = 0.49\nsamples = 145\nvalue = [62, 83]"] ;
1245 -> 1246 ;
1247 [label="X[1] <= -1.571\ngini = 0.346\nsamples = 18\nvalue = [4, 14]"] ;
1246 -> 1247 ;
1248 [label="X[0] <= -0.885\ngini = 0.48\nsamples = 5\nvalue = [3, 2]"] ;
1247 -> 1248 ;
1249 [label="X[2] <= -0.121\ngini = 0.375\nsamples = 4\nvalue = [3, 1]"] ;
1248 -> 1249 ;
1250 [label="gini = 0.0\nsamples = 1\nvalue = [0, 1]"] ;
1249 -> 1250 ;
1251 [label="gini = 0.0\nsamples = 3\nvalue = [3, 0]"] ;
1249 -> 1251 ;
1252 [label="gini = 0.0\nsamples = 1\nvalue = [0, 1]"] ;
1248 -> 1252 ;
1253 [label="X[0] <= -1.062\ngini = 0.142\nsamples = 13\nvalue = [1, 12]"] ;
1247 -> 1253 ;
1254 [label="gini = 0.0\nsamples = 1\nvalue = [1, 0]"] ;
1253 -> 1254 ;
1255 [label="gini = 0.0\nsamples = 12\nvalue = [0, 12]"] ;
1253 -> 1255 ;
1256 [label="X[2] <= 0.018\ngini = 0.496\nsamples = 127\nvalue = [58, 69]"] ;
1246 -> 1256 ;
1257 [label="X[0] <= -1.065\ngini = 0.26\nsamples = 13\nvalue = [11, 2]"] ;
1256 -> 1257 ;
1258 [label="gini = 0.0\nsamples = 2\nvalue = [0, 2]"] ;
1257 -> 1258 ;
1259 [label="gini = 0.0\nsamples = 11\nvalue = [11, 0]"] ;
1257 -> 1259 ;
1260 [label="X[2] <= 0.461\ngini = 0.485\nsamples = 114\nvalue = [47, 67]"] ;
1256 -> 1260 ;
1261 [label="X[2] <= 0.182\ngini = 0.415\nsamples = 51\nvalue = [15, 36]"] ;
1260 -> 1261 ;
1262 [label="X[2] <= 0.112\ngini = 0.499\nsamples = 21\nvalue = [10, 11]"] ;
1261 -> 1262 ;
1263 [label="X[1] <= -1.358\ngini = 0.346\nsamples = 9\nvalue = [2, 7]"] ;
1262 -> 1263 ;
