digraph Tree {
node [shape=box] ;
0 [label="X[2] <= -0.196\ngini = 0.487\nsamples = 7500\nvalue = [3150, 4350]"] ;
1 [label="X[2] <= -0.986\ngini = 0.202\nsamples = 3248\nvalue = [370, 2878]"] ;
0 -> 1 [labeldistance=2.5, labelangle=45, headlabel="True"] ;
2 [label="gini = 0.0\nsamples = 1441\nvalue = [0, 1441]"] ;
1 -> 2 ;
3 [label="gini = 0.326\nsamples = 1807\nvalue = [370, 1437]"] ;
1 -> 3 ;
4 [label="X[0] <= 0.156\ngini = 0.453\nsamples = 4252\nvalue = [2780, 1472]"] ;
0 -> 4 [labeldistance=2.5, labelangle=-45, headlabel="False"] ;
5 [label="gini = 0.498\nsamples = 2649\nvalue = [1409, 1240]"] ;
4 -> 5 ;
6 [label="gini = 0.248\nsamples = 1603\nvalue = [1371, 232]"] ;
4 -> 6 ;
}
